# Layer Numbers: 4
# Layer Number: 0
relu
128 290
# W
-0.34458646
-0.8181112
-0.24636218
0.6930628
0.3021387
0.09030396
0.28962317
0.28818002
0.23061891
0.43414468
-0.58764094
-0.0110287275
0.25553608
-0.04828523
-0.33769014
-0.12941143
-0.61231905
0.23029186
-0.6625907
0.035468664
-0.034013394
-0.004411705
-0.20335568
0.580576
-0.49554536
-0.17838897
-0.009059445
0.5729454
-0.0757607
0.460549
0.5219423
-0.47696668
0.0148527
-0.4514999
0.23141994
0.34249124
-0.13565816
0.5245255
0.30348194
0.64809525
0.6708678
0.50835603
-0.0060866238
0.25812864
-0.71627307
0.47218087
0.39472082
0.029959163
-0.30507678
0.07425383
0.062440448
0.12955323
-0.54735184
0.6308959
-0.2882136
0.20009416
0.27592003
-0.3827239
-0.023170933
-0.5528863
0.3005455
-0.47433656
-0.15305455
-0.25765854
0.35638106
0.4447423
-0.3382864
-0.6564254
-0.029854715
0.25759894
0.010444484
-0.034841422
-0.43531016
0.21775638
0.17409283
-0.35436815
0.45426014
-0.7449947
0.3146108
0.06369042
0.28194258
-0.22330648
0.29730958
-0.39076546
-0.75663525
0.26582024
0.45373023
0.28599843
0.59038126
0.52983934
-0.03657493
-0.11483957
0.28865847
-0.1780195
-0.04381868
-0.6667994
0.35595438
0.38380617
-0.7042455
0.33899283
-0.06911903
0.09401116
0.12199218
-0.37659717
0.2678224
0.33000103
0.060229506
0.41940832
-0.0642849
-0.39230573
-0.3619948
-0.3647993
0.2170946
-0.08179699
0.48393327
-0.22930604
0.07143057
-0.29635584
-0.37114453
-0.29037023
-0.5343613
0.44495925
0.02763127
0.17330474
-0.5203733
-0.3811558
0.34850818
-0.25701225
-0.34456953
-0.19066888
0.30035082
0.2082503
-0.2807727
0.38220668
0.061039362
0.12160519
-0.46608025
-0.32636422
0.1269912
-0.61020666
-0.20388247
0.3762605
-0.26451662
0.045573886
0.11051827
-0.3738856
-0.48883703
-0.023572383
0.3378377
-0.07081425
-0.033962518
-0.08600894
-0.47217822
0.17701124
-0.06212355
-0.20669734
0.27177173
-0.07739918
0.52129143
0.031859014
-0.26339346
-0.14336574
0.605652
0.24952646
-0.48251244
0.014537927
0.11302964
-0.28460705
0.09385432
0.2483701
-0.04015158
0.14752789
0.15281081
-0.10530659
-0.31395832
-0.28561667
-0.14304063
-0.63178766
-0.15337466
-0.74189967
0.24988088
-0.13977246
0.11763441
-0.058010213
0.36872116
0.8628904
-0.21372353
-0.00016312856
-0.32167402
0.3511953
-0.22628728
-0.7450112
-0.002253969
0.31797996
-0.18039878
-0.20652854
0.6355904
-0.24133891
-0.30694315
-0.24047251
0.23680758
-0.34030384
0.39206
-0.20607138
-0.46601644
-0.17513241
0.5217228
0.0360718
0.45664406
0.1634303
-0.16300751
0.54252017
0.43221897
-0.7136332
-0.1588679
-0.17437932
0.33742297
-0.42110172
0.26731068
-0.32279155
0.57101685
0.0059820437
-0.26046848
-0.20071061
-0.07972153
-0.15063968
-0.05648203
0.2391431
-0.13092428
-0.102175556
-0.011388785
0.38744962
-0.06314327
0.03650221
0.09205775
0.13124833
-0.38470674
0.4291229
0.051052626
0.16791777
0.031591337
0.010508898
-0.20001651
0.23499754
0.43440366
-0.34522873
-0.47499377
-0.5262922
-0.11471728
0.4034037
0.5515333
-0.06794472
-0.5376647
0.15988326
-0.47174096
-0.7078866
0.11964
0.1078168
-0.03645828
-0.22279692
-0.2790109
-0.33700806
-0.52866334
-0.16761665
-0.1491397
0.05580727
0.51021403
0.2072638
-0.1555278
-0.022527367
0.43547645
0.3525526
0.22193147
-0.10600624
-0.07200609
-0.39981726
0.13997126
0.15344785
-0.038134687
-0.558069
0.24569376
0.016666012
-0.4078426
0.08134045
-0.4186518
-0.2512158
-0.10205016
0.33165142
-0.056244526
0.079404406
-0.2697799
-0.2382723
-0.3917406
0.004622336
-0.2702376
-0.4904852
-0.31991673
-0.054314576
0.26913404
-0.18329583
0.10082294
0.0069569494
-0.30539227
-0.022367544
-0.011812271
-0.010464459
0.067848824
-0.09171536
-0.52997863
0.027736051
-0.07286757
0.4344352
-0.04999662
0.33942923
0.33508846
0.056319494
-0.33644718
-0.39615884
-0.16721563
-0.095071666
-0.04611817
-0.1041514
-0.1423453
0.14349191
-0.023293352
0.33095863
0.077775195
-0.12951203
0.047491744
0.07999545
-0.4080573
0.524668
-0.17800002
0.3977647
-0.32720125
-0.027561143
-0.27423006
0.034578867
-0.17942841
0.38807777
-0.23831673
-0.21820535
0.119997285
0.08104264
-0.3115956
-0.09663304
-0.12917864
-0.025904084
0.21134073
-0.06458252
-0.19655259
0.21515508
-0.16926068
0.11740045
0.34519917
-0.19991976
0.25790825
-0.16593215
0.22127002
-0.39852047
-0.027716486
-0.05140563
-0.078699514
-0.018033044
0.13901184
-0.15223789
0.34848043
0.1912486
0.042049997
0.18875208
-0.3765103
0.048597235
0.5558697
0.3546922
0.11210812
0.29292166
0.22981529
-0.13035177
-0.30984232
-0.4073812
0.08743971
0.3358054
0.2227304
0.30947673
-0.11885164
0.077004194
0.08576237
0.103290975
0.068050735
0.09344752
0.117556006
-0.00028755536
0.28454128
-0.061682887
-0.07251277
-0.10736725
-0.014597875
-0.014423115
0.010275642
-0.09766055
0.034187015
-0.10657684
-0.009226937
-0.04897195
0.02404863
0.27502835
-0.016991604
0.20352043
-0.39866588
0.047518376
-0.05016509
-0.03406917
-0.011719926
0.12256477
-0.023066064
0.021588678
0.011328188
0.03350962
-0.032871462
0.11957056
0.008310731
0.19209498
-0.12920639
-0.13539092
-0.0811021
-0.024742948
0.026848849
0.0002853019
0.07342898
0.14913629
-0.16584294
-0.039149087
0.03963899
-0.029929241
0.07606676
0.10027195
0.018088635
0.04756279
0.00037928318
0.06275916
0.006786129
0.082313694
0.18891639
-0.04550315
0.095768556
0.079813674
0.070271544
-0.11347623
0.037433
-0.026656512
-0.09834266
0.24423423
-0.13321142
0.19480622
-0.012750636
0.0384237
-0.042213798
0.085247174
-0.005289529
-0.0055923094
0.099398956
0.0275822
0.0904091
-0.15107608
-0.13769053
0.025486065
-0.051618017
0.0373466
0.038003836
0.19456701
0.12348084
-0.064226024
0.032402612
-0.057436775
0.006981407
-0.06504378
-0.10705538
-0.27398115
-0.13674669
0.046587687
0.037490223
-0.034752477
-0.025986208
-0.050716877
-0.01388562
0.016469825
-0.042219773
0.020755086
0.018861922
-0.07236864
0.15726048
0.14490028
0.100580476
0.0009714544
-0.11692095
0.05503011
0.019593002
0.19378704
0.035101607
-0.096980564
0.16923624
-0.0523975
0.060836893
0.13812302
-0.020873956
-0.0334157
-0.074909836
-0.071967036
-0.04092023
-0.014124979
-0.10077345
-0.06448049
-0.16361097
0.0011157438
0.00825647
0.06626335
-0.06718825
0.09422866
-0.047449585
-0.10010816
-0.019663207
0.08576258
-0.087625965
0.007775787
-0.024553621
0.06620824
0.061896216
0.093321316
-0.0050184643
0.11022543
0.017771097
-0.0035333326
0.08635729
0.011557165
-0.098173864
-0.0987439
0.04604741
0.019933045
-0.006400824
-0.021849077
-0.07878411
0.07548976
-0.06180548
0.0699681
0.100160375
0.027854307
0.056199394
0.010518026
-0.042045593
0.02466509
0.008093675
0.1194045
0.0008756378
-0.095789544
-0.11909109
-0.07335121
-0.0727469
0.029912507
0.14045633
0.07785563
0.04333999
-0.013304023
-0.06543625
0.060825642
0.08153768
0.15581919
0.06629736
0.108577594
0.012071412
-0.022420492
-0.084301434
0.113643914
0.09813767
-0.022929952
-0.08231434
-0.11401839
0.07712896
-0.07380221
0.060343236
0.08112716
-0.030079013
-0.06893604
-0.050781265
0.01450652
-0.06334672
-0.11945178
0.078742616
-0.13978082
0.025513334
-0.120405555
0.04298087
0.010718957
0.09821077
-0.06981708
-0.024216479
-0.05731041
0.076461904
0.07578974
0.09844921
-0.043701567
0.11299285
0.04521678
0.11670459
-0.09258868
0.12902832
-0.098344974
-0.05189612
-0.061387196
0.028036071
0.086043954
-0.059205845
0.050943363
-0.058849763
0.030141845
-0.14983022
0.03185914
0.002091394
0.03949739
-0.07579183
-0.07046252
0.083098225
-0.018307643
0.047398027
-0.038566265
0.018351085
-0.03389339
0.08549038
-0.008374408
-0.026616488
-0.103979096
-0.0436974
0.032131393
-0.13447694
-0.009625681
-0.049170066
0.047134113
-0.098661125
-0.036946133
0.010225403
0.061807647
-0.17747976
-0.08834183
-0.023392372
-0.07740108
0.022627186
-0.026704676
0.00044711152
-0.053959742
0.13628113
-0.019217666
-0.09576852
0.088225864
0.02933958
0.018413343
-0.0019482429
-0.11819915
-0.025475625
-0.037150685
-0.089758754
-0.07366592
0.00024753908
-0.11439904
0.07422232
0.025802387
-0.121813685
0.056246787
-0.057284005
0.04612718
-0.048039302
-0.023767905
0.010582782
-0.11656599
-0.03959061
-0.09627275
-0.05415569
-0.11599877
-0.067683816
-0.04683555
0.10142006
-0.004551433
-0.0975101
0.07276349
-0.07794672
-0.045735393
-0.109318726
-0.10344622
0.10941999
0.06180986
-0.10741413
-0.13084373
0.013793578
-0.112127796
0.00623328
-0.09013165
0.06900859
-0.10541624
0.01683622
-0.089786224
0.10744417
0.0467953
-0.07586767
-0.08454624
-0.06476102
-0.1501243
-0.09529112
0.03772628
-0.09454908
-0.07401687
-0.039940957
0.1298535
0.017368644
-0.13723417
-0.0055639795
-0.004631687
0.09774318
0.0120295575
-0.12995069
-0.08514247
0.065363534
0.14118415
0.03039009
0.041146062
-0.044726975
-0.13126224
-0.068408825
0.030064411
-0.022431852
0.09101573
0.080201656
-0.064931676
0.029926274
0.022369271
0.08316419
0.037823137
-0.10088985
-0.011434361
0.09285866
-0.07152926
-0.21611618
0.042453233
-0.07991314
-0.0044252877
0.06943608
-0.020436207
0.08412185
-0.05276706
0.06321862
-0.054713942
-0.09896157
-0.020190062
-0.022451276
0.10862569
-0.034519605
0.070040785
-0.110139646
-0.010631714
0.044825774
0.0026643036
-0.0061559193
0.06865396
-0.02735708
-0.022408029
0.024327008
-0.061282016
0.0076705473
0.03262771
0.043594595
0.029968038
0.114941426
0.007783089
-0.095592625
0.006216857
0.014650623
0.014983037
-0.102353536
-0.049381353
-0.0050581708
0.01809156
0.061319496
-0.02572623
0.13132629
-0.03962164
-0.03178278
0.11042213
0.11396622
0.018035648
0.11821469
0.059863344
-0.06850766
-0.0038517152
0.10148766
-0.023667356
0.056711357
0.0645158
0.029720383
-0.10318184
0.019771758
0.0776114
0.010231266
0.07420794
0.08727679
-0.015754411
-0.003938825
-0.1417766
0.108818464
0.10470048
0.009681629
0.14297046
0.05844834
0.056513693
0.05707877
0.08982019
-0.0010853235
0.01922164
-0.040693484
0.041693904
0.05398233
-0.011886699
0.021028336
0.06841714
0.056610163
-0.09983712
-0.029025763
-0.0616389
-0.06391467
-0.07627387
0.03751859
-0.023327602
0.09952133
0.048892755
0.065733775
0.10470807
0.099110045
-0.06607248
-0.03720189
0.043448336
0.04831731
-5.783439e-05
0.13701159
0.06373062
-0.045950297
-0.0782078
0.026280776
0.023477357
-0.028716872
-0.029554222
-0.09885544
0.07338896
-0.08674383
-0.08145995
-0.06522921
0.13925587
0.11102486
0.0005136871
0.07705814
-0.11439278
0.07538449
0.07684861
-0.059148684
-0.09295417
-0.09979008
-0.07602622
0.055643886
0.107017525
-0.0752928
0.0019797762
0.102185056
-0.06266399
0.14565
-0.09150459
0.085676484
0.04385096
-0.06578268
-0.01779085
0.06521229
0.14102998
0.015479022
0.06807983
-0.0185946
0.00673666
0.009725599
0.0057823425
-0.13933061
-0.057523318
0.03392366
-0.023120705
-0.0041202027
0.09644187
-0.07095979
0.001489718
0.08167909
0.021037556
-0.0053404644
0.083838396
-0.095301986
0.044597812
0.050527595
-0.028312597
0.0706211
-0.050746217
-0.06622906
-0.046280943
0.03682464
-0.08956497
-0.043735523
-0.12577026
-0.040768094
-0.099503115
-0.044010844
0.07545548
-0.053122636
0.08844222
-0.060527153
0.0116846105
0.07879196
0.005499639
-0.027606605
0.0836717
0.053393524
0.04695863
0.049006965
0.033482015
0.030829696
-0.059357632
-0.054615885
-0.059714258
-0.021172887
0.034726214
-0.04375415
0.10160978
-0.08534521
0.07905661
-0.11284395
-0.074082926
-0.008086323
0.13610971
-0.00761344
0.017859874
-0.00031462347
0.042384136
-0.022533812
-0.03099908
-0.025203291
-0.05566933
0.02876448
-0.038484976
0.09008242
-0.026232895
-0.024486888
-0.045650616
-0.08363088
-0.003915403
0.18155156
-0.02536116
-0.03419278
-0.031635482
0.015550014
-0.09086677
-0.04350859
-0.12034969
-0.05913926
0.037871886
-0.05693682
-0.04355513
0.09689204
-0.13876538
-0.028867051
0.023902504
-0.047066767
0.07741683
-0.094545536
0.016619422
0.09338519
0.08208285
0.048100967
-0.10993472
0.1085824
0.15800093
0.077836186
-0.093818724
-0.079152286
0.02779633
-0.037945833
0.070503615
0.0034574214
-0.079460196
0.030035218
0.058762338
0.12036627
-0.062665604
0.13602869
0.018179238
-0.02598824
-0.05910293
0.021674138
-0.018230217
-0.030899532
0.052185822
-0.020590052
0.09817453
0.015209543
-0.100658335
-0.069666184
-0.016337976
-0.032997232
0.048403583
-0.018801173
-0.056746006
-0.09070428
-0.016416505
-0.057538137
-0.08314597
-0.08162466
-0.022254633
0.041261375
0.0028534369
0.008596653
0.040682036
-0.093081184
-0.10849565
-0.00016413655
-0.1508063
-0.08463139
0.030943288
0.016938299
0.021646174
-0.00070425944
0.016371662
0.051578086
-0.033887647
0.010152141
0.09146895
0.04624117
-0.011476783
-0.0041024345
-0.09333151
-0.016759686
0.020908538
-0.064562894
-0.14262322
0.022771835
0.054627866
0.057036113
-0.013348768
-0.024641946
-0.09846146
-0.012976494
-0.0030269143
-0.021007005
0.009020462
0.022567568
-0.0014165677
-0.007704504
-0.036409657
-0.04151217
-0.07101585
-0.028518504
0.011197928
-0.05334475
0.060390018
-0.0353037
-0.1336726
0.03584933
-0.07558538
0.07199065
-0.0007257162
-0.027595008
-0.03632719
-0.011057161
-0.024417618
-0.029020296
-0.034366436
0.036948405
0.005477804
-0.024283232
-0.023034314
0.05482519
0.030461492
-0.048940483
-0.048306987
0.017655654
-0.01881228
-0.014450761
0.0320138
-0.08204007
0.0006266837
0.02152088
0.0022746855
-0.04747968
0.00526169
-0.00794845
-0.013995272
-0.03850253
0.056309577
0.026089968
0.018459238
-0.005241731
0.0945223
-0.0066524046
-0.01464042
0.031082544
-0.0019270305
0.06494369
-0.021103656
0.07529032
-0.0072764507
-0.04917084
0.0048170267
-0.04173372
0.03401785
-0.017079141
-0.017281275
-0.056038413
0.0027345368
0.0001295536
0.0021612842
0.029600795
0.04454741
0.013495901
0.004629152
-0.012103003
0.005632786
-0.059443403
0.008405778
0.009707755
0.07539503
0.0013012171
0.0009047421
-0.0076078176
0.013526759
0.050345164
0.08899775
-0.031957854
-0.042696476
0.0365732
-0.024763422
-0.010467155
0.058979634
-0.0640136
0.030505452
0.008850837
-0.0035526576
0.05262249
0.008823753
-0.0070208884
-0.025282439
0.03172629
0.022952203
0.0047595096
0.017211337
0.0013205102
-0.015227225
0.08742008
-0.016797261
-0.012392873
-0.0004268093
-0.119399324
-0.0686271
0.11356537
0.109719366
0.085405275
-0.033740133
0.060121246
-0.049071226
-0.08271631
-0.10835937
0.07066976
0.056544524
-0.096678086
-0.04840296
-0.0158604
0.048101716
-0.08748642
-0.07968308
-0.14549455
0.0011039149
0.030766709
-0.026929203
-0.017774057
0.13268831
0.022532577
-0.14403819
0.052109256
0.034520373
-0.015950644
-0.056092765
0.00060459104
0.115092866
-0.1160504
-0.072020575
-0.041927274
0.082384564
-0.0029918815
0.046995483
-0.07065244
-0.03054778
-0.087384984
-0.113725215
0.07858747
-0.03406022
-0.011114864
0.06787313
0.13130127
0.113351576
-0.120031856
-0.09266295
-0.09246318
-0.09863895
0.0056361337
0.043519787
-0.08914116
-0.016170094
0.040856715
0.08192697
0.023131454
0.04762758
0.01441665
-0.0764624
-0.076520756
-0.008844989
0.10205951
-0.09101804
0.008123589
-0.09166449
0.04125872
0.0070853275
-0.026857752
0.048839796
-0.035279356
0.083837256
0.08539409
0.16361663
-0.016364766
0.07211549
0.04670528
0.059560973
-0.031700537
-0.05238176
-0.02351378
0.00961594
-0.038864557
-0.07058939
-0.0077105016
-0.107839145
-0.024997171
-0.01110633
0.037267257
-0.059716668
0.039158203
-0.09764452
0.02228379
0.02760024
0.06653239
0.070682585
0.10470714
-0.00014980075
0.10886304
0.11640936
-0.042488735
0.0020803271
0.008187584
-0.022753099
0.091640785
-0.11060831
-0.06433999
0.016253939
0.04110428
0.070015594
-0.11552479
0.04584522
0.005853791
0.11060081
0.05722647
-0.025755258
0.0294794
0.026252886
0.015595835
-0.039681897
0.014037454
0.023866354
0.07255823
0.049221493
0.026337964
-0.07823751
0.07584515
-0.023824668
0.1685714
-0.065035336
0.090793796
0.016461441
0.0060293437
0.032946434
0.042014528
-0.02671651
0.048263278
-0.019218758
-0.07200477
0.03678004
-0.0053346194
0.002095961
-0.012775579
0.22884312
-0.038798496
0.059201438
0.010944529
-0.0132209435
-0.045725256
0.039690282
0.078359455
-0.014364571
-0.019090936
0.061562736
-0.1600156
-0.10960115
0.013238547
-0.048006915
-0.007253471
0.08522541
0.05797366
0.05100637
-0.0015691512
0.03515797
0.08946405
0.03507107
-0.0076311775
-0.009627928
-0.026652718
-0.007150414
0.11498956
0.016367747
-0.0918978
0.08892034
-0.11085159
0.02991565
0.086118065
-0.0526722
-0.0719049
-0.041274205
-0.04842771
0.01988765
-0.035762426
-0.0822436
-0.120473124
-0.051236186
-0.032229032
-0.030025763
0.10622325
-0.094233744
-0.15424189
-0.035148542
-0.034505706
0.026662448
0.004964487
-0.056145247
-0.117650546
-0.04067151
0.10648484
-0.00076480664
0.04110956
0.085508786
-0.13981864
0.07347492
0.05381322
0.08687603
-0.06433466
0.034025952
-0.019859074
-0.037370127
-0.1574324
-0.0718738
0.0598861
0.109477304
0.0006791118
0.07405602
-0.14256008
0.051545784
0.082704775
0.0924944
0.013200433
0.050131124
0.010607764
-0.06892316
-0.1929983
-0.0012357403
0.12436083
0.029386714
0.070065685
0.105298094
-0.11563176
-0.017124392
0.05403735
-0.097046085
0.0818464
-0.050912242
0.019652737
-0.16656339
-0.04377014
0.13363987
-0.018155681
-0.008238557
0.05133285
0.08105684
0.09640068
0.008655622
-0.009029216
0.13666104
0.05720768
-0.059708413
-0.06251183
0.03426672
0.073047616
-0.02729498
-0.015810441
-0.09787207
-0.0917156
0.0023369433
-0.03851685
-0.04068674
0.035052743
0.014512545
-0.046387114
-0.01901558
0.07483628
0.0064914334
0.10575396
-0.03244281
-0.030879807
-0.04315784
-0.03117917
-0.0069972356
-0.061294403
0.013388578
0.08221667
-0.0045272103
-0.043989696
0.02520974
0.10458807
0.07756741
-0.011998002
0.028754342
0.08695629
0.071174055
0.02760681
-0.13738075
0.18646735
-0.049433585
-0.054039016
0.046642657
0.096252926
0.04287467
0.021756819
-0.15905933
-0.022658879
0.05099566
-0.09828059
-0.012481427
-0.053050585
0.12241888
0.059434425
-0.0039244983
0.0761262
0.06695594
0.0443636
0.12080916
0.14053875
0.13602968
0.05952979
-0.03296435
-0.09313041
0.1415488
0.10250118
0.07079905
0.04168869
0.0583071
0.023911532
0.08044263
0.0536569
0.05107827
0.04363834
-0.12720937
0.05427734
-0.029478163
-0.07396642
0.14661536
0.0034435724
0.10291607
-0.04037629
-0.038501125
-0.05181894
0.026607353
-0.064229265
0.00043395406
0.01269858
0.006596589
0.023889668
0.10007746
-0.008757575
-0.009236339
0.0782977
0.03343378
-0.06497174
0.008652617
0.02681245
-0.088453375
-0.03745105
-0.057449657
0.07871081
-0.013752367
-0.008635939
0.035294726
-0.04371043
0.029679228
-0.080713145
-0.09792496
0.037432943
-0.098134086
-0.039626773
0.03945202
-0.04673168
0.019484213
0.046846975
-0.09445278
0.06655721
0.06994467
0.09489421
0.0661063
-0.034072537
-0.0008550719
0.098084465
-0.07854056
-0.051875126
0.08096456
0.04127326
0.087289356
0.11471061
0.09576575
0.053866874
-0.061627094
-0.044296037
0.011335355
-0.052558456
0.085106954
-0.09454656
0.084603645
-0.09720061
-0.004542682
0.06766067
0.025222214
-0.04061276
-0.027873127
-0.015474924
0.077097714
-0.020756532
0.0021334002
-0.005273656
0.077026956
0.1398659
-0.019173829
0.013105508
-0.045898046
-0.01955654
-0.018305115
-0.045034625
-0.090455815
0.027258873
0.023675092
0.10186404
0.07046827
-0.07289604
0.09764714
0.03686478
-0.0689611
-0.018815272
0.024844011
0.023992082
0.015497137
-0.034205258
-0.02099151
-0.016275348
0.09762621
0.10753948
-0.044577535
0.08486801
-0.011526591
0.03808486
-0.024981389
-0.052110463
0.034259547
-0.051032294
0.044406462
-0.06103982
0.07752087
-0.17420201
0.0093071135
-0.025212381
-0.08626224
0.014440346
-0.09067822
0.058516853
0.021632804
0.078437336
0.032021437
-0.043660674
0.052882135
0.012267177
0.08611823
-0.025395134
-0.01018179
0.03492009
0.08989699
0.04912045
-0.020336177
0.0143819405
-0.018579194
-0.034070704
-0.23028804
0.15628913
-0.107273325
0.017811686
0.060663827
0.09748894
0.012161107
0.018441524
-0.130077
0.0061188764
0.07565296
-0.06673481
-0.053952213
-0.045687135
0.037889536
0.012189153
0.013665076
0.015573232
-0.053628456
-0.012115149
0.034795355
0.09661452
0.065278485
-0.028534975
-0.05450169
0.020441148
0.06391929
0.08351978
-0.12272651
0.053475592
0.054227907
-0.0470962
-0.026604787
0.07109141
0.12749538
0.027741661
0.029847616
-0.097632304
-0.031325035
0.082591124
-0.03192278
-0.013993137
-0.019629272
-0.055516828
-0.017824546
-0.018085133
-0.008971503
-0.037043456
-0.00031783534
0.018422764
0.027488455
0.021305459
0.040162187
0.09414164
-0.056448754
-0.13034196
-0.085538715
0.116256505
0.034971293
-0.025911001
0.04734694
-0.07769382
0.07571831
0.07901305
-0.046612795
-0.06547424
-0.05787104
-0.12227855
-0.043089233
0.05424392
0.085164234
0.055649355
0.014364123
-0.11911643
-0.02429321
0.02519141
-0.09061135
0.047299486
0.043334547
0.09177047
0.04004964
0.08218216
0.094798386
-0.002944456
0.09705903
0.012509778
0.0751727
-0.098051526
-0.06583571
0.04981478
-0.09646867
0.060886245
0.054962035
0.035842832
0.008435931
-0.03467755
0.086074546
-0.025035072
0.01930735
-0.06834966
-0.1231928
-0.109609775
0.05259738
1.426816e-05
-0.03487982
-0.039897516
-0.044975657
0.040662546
-0.023192376
0.07799352
0.074735895
-0.027369617
0.022131857
-0.048439033
0.115093954
-0.0059917276
0.06713678
0.14017302
-0.015424898
0.015735919
-0.037750505
0.06770781
-0.04822001
0.029661708
-0.0040446008
-0.0017414081
-0.12873784
0.0033038903
-0.0925663
-0.011262088
-0.11001854
0.07859756
-0.15503408
-0.082954384
-0.06625786
-0.09300694
-0.02364171
-0.09891675
-0.009571654
0.088247135
0.022888191
-0.07032518
0.008090231
-0.010368576
-0.06821591
-0.012847669
0.10192306
-0.035647355
-0.09052882
0.009792401
-0.0057009393
-0.13172981
-0.06306711
-0.37183267
-0.06143151
-0.15058675
-0.11486913
-0.031717513
0.09230334
0.104910605
0.08868991
-0.033487674
0.06064811
0.015376935
0.063462675
0.10879517
-0.03514107
0.02553055
0.012933837
-0.008012269
0.08840429
0.02801318
-0.07919219
0.02297059
-0.09402927
-0.06453225
0.009315472
0.037107173
-0.06057512
0.055098016
0.036657885
-0.04439431
0.03190793
0.09397038
0.081381805
0.013870311
0.065196514
-0.14817469
0.017959548
0.07702224
0.06405456
0.06454929
-0.14597301
-0.120944515
0.020099936
0.1211301
0.0081512155
0.039791223
-0.09560564
0.053600386
0.036713537
0.057481594
-0.022750339
-0.08587205
0.019230591
0.06285928
-0.08781946
0.032654013
-0.082602635
0.14005543
-0.14060839
0.014795377
0.0012931708
-0.12919706
-0.14743783
-0.12520687
-0.17039362
-0.09819628
-0.059008047
-0.005526188
0.032383014
0.01184425
0.067276694
-0.081847325
-0.048633594
-0.039195124
-0.043261394
-0.10899923
0.08869538
0.08201691
-0.029765539
-0.16280177
-0.08311629
-0.046158317
0.03364812
0.07305242
-0.06516233
-0.0949544
-0.08775803
0.10435772
0.069073394
0.0052487464
-0.09720832
0.051582713
0.071671344
-0.057281822
-0.09363687
-0.1484574
0.00026207272
0.069588706
0.044822074
-0.048861746
-0.019658824
0.09761513
-0.07005671
0.027050423
0.22094637
-0.10444001
-0.07080839
-0.033723354
0.0010363356
-0.006828315
0.044977497
-0.017610269
-0.085385375
0.11541221
-0.047993794
-0.022908121
-0.02319897
0.028122867
0.031386375
0.017338034
0.04629415
0.0951194
-0.06968672
0.052052904
-0.02055893
-0.035486627
-0.061620925
0.10004481
0.06601489
-0.05616346
-0.041502543
-0.08749722
0.08494844
0.06305542
0.08387015
-0.07860524
0.12332146
-0.045826253
-0.2864693
0.1829307
0.025641408
0.0017893065
0.05270466
-0.1625912
-0.20394339
-0.08773684
-0.007855813
-0.03805961
-0.052139726
-0.048673786
-0.011215597
-0.038195416
-0.027690215
-0.058316104
0.09943623
0.043494433
-0.0890188
0.016440917
-0.050729893
-0.12204332
-0.006601535
0.12126084
-0.026353158
-0.10601602
-0.17329931
0.10383799
0.0809856
-0.056445956
-0.0069594732
-0.045693554
0.003174863
-0.043448288
-0.058553133
0.046865586
0.07740387
-0.03181684
-0.0119847655
0.047345992
0.00953058
0.12369877
0.05653381
-0.055972006
0.0015412944
-0.026587104
0.056020476
0.042092744
-0.03270981
-0.09061569
-0.07380183
0.00052705454
0.065103866
0.011090519
0.012621788
0.009602861
0.012924042
-0.025159657
-0.05615972
0.017708886
0.052158356
0.0040441835
0.03749483
-0.07907931
0.078549966
0.11072667
-0.1525062
-0.04129609
-0.06158451
-0.09285152
0.014743506
-0.019938707
-0.114449896
0.10104409
-0.015235935
-0.029169312
0.084847435
0.19576728
-0.15979278
0.13947636
-0.07978763
-0.108190335
-0.09739806
0.047096774
-0.07849961
-0.05669921
0.105249815
0.009065135
-0.04044826
0.06639233
0.008920736
-0.0693323
0.091056004
-0.1029317
-0.0824848
-0.0028503619
0.04790418
-0.048304707
0.12887497
-0.00861197
-0.05712675
-0.06466053
0.024859117
0.09803143
0.12490749
0.092110425
-0.014599608
-0.15049534
-0.013300996
0.0015396685
0.0037927912
-0.00468189
0.04697917
0.06302176
0.079922035
0.09740535
-0.04990924
0.0065684766
0.037870515
-0.08325456
-0.18186012
0.07859184
0.07356703
0.16025752
-0.043922555
0.116007656
0.08368571
-0.0009225137
-0.018820547
0.07205188
-0.09526102
0.0022784031
0.08254556
-0.010184724
0.0090726
0.008730128
-0.069000795
0.13831146
-0.026073975
-0.12095192
-0.14457646
-0.07186048
-0.0023924618
0.17685618
0.16096829
0.0004705473
-0.026080962
-0.13034105
0.010177606
0.07232881
0.09103384
0.090288736
-0.09690853
0.014634282
0.09008143
-0.09318024
-0.04612539
0.048945915
0.1005303
-0.04825689
0.032212265
-0.067906685
-0.09278413
0.13154401
0.07768171
0.0645091
-0.14790104
-0.042485368
-0.056777
-0.11440544
-0.045437034
0.065302126
-0.14782022
0.051361382
0.015107536
0.0045603937
0.042970147
0.008654699
-0.07756897
0.056525804
-0.10834382
0.04346442
-0.04912184
0.07641096
0.03010825
-0.183456
-0.11017228
0.03255525
-0.08737172
0.00738504
0.004918007
-0.07358772
0.07383918
-0.06394397
-0.02479148
-0.037644885
0.08448817
-0.047483988
0.033095576
-0.06421232
-0.084110774
-0.033204153
0.058388773
-0.06362954
-0.08430495
0.07334978
-0.04443661
-0.080105714
-0.072356485
-0.094886936
-0.032079283
-0.031576592
0.0530536
0.039793435
0.006311464
-0.0042535653
0.023871087
-0.042550128
-0.08716061
-0.0180709
-0.08716313
-0.02722155
0.052180864
-0.1569196
-0.051942434
0.00019711522
0.0638931
-0.011830467
0.12028148
0.019148696
-0.044020414
0.011111082
0.053684883
-0.049468942
-0.013078716
-0.12980494
0.03779275
0.0954444
0.07936112
0.024530381
0.005019146
0.042096682
0.0064193006
-0.024550965
-0.11164229
-0.07152725
-0.0048199627
-0.011196976
-0.020007914
0.09178797
0.07750791
0.075967975
0.061200723
0.049239628
-0.040090464
-0.0047628507
0.030534068
-0.013916499
0.091009706
0.015168088
0.0059142946
0.08050044
-0.014153149
0.019458799
0.056409787
-0.014504573
0.06466476
-0.016195655
-0.103059694
-0.0016101169
0.0577509
-0.111612335
-0.05402369
-0.011076819
0.0016383529
0.05652556
-0.057361767
0.04841313
-0.0665542
-0.120853856
0.026594412
0.08709405
0.027195614
-0.07792051
-0.07810164
-0.00764431
-0.12222484
0.042642582
-0.12937737
0.024394605
0.06112497
-0.059829373
-0.007423741
0.0015790074
7.790202e-05
-0.06407763
0.008089936
0.002256479
-0.015321161
-0.024411809
0.0167514
0.06821319
0.0024867598
0.020133156
-0.044966407
0.024987439
0.05221807
-0.08892023
-0.086865515
-0.10106667
0.061450582
0.022437748
0.04322465
0.05575452
0.005449781
0.023994908
0.008843163
-0.013556722
0.018355286
0.04835863
-0.03888074
0.03923798
0.07606412
0.061633356
-0.08904234
0.092736825
0.11333803
-0.07983048
0.072328754
0.018705145
0.10287547
-0.020401241
0.11252075
-0.10690221
0.10792328
0.026761556
0.04342156
0.09695742
0.096440904
0.06421925
-0.044836044
0.03576554
-0.08067483
0.040894207
-0.11838357
0.06022913
0.068588145
-0.007703583
0.08388992
-0.05322509
-0.14998943
0.06797322
0.045354553
-0.06021351
0.054950282
0.07233566
-0.041091662
0.055968028
-0.049103983
-0.09178277
-0.04472296
0.033868335
0.054165166
0.07697612
-0.0015395685
-0.007012466
-0.035116766
-0.1194654
0.0029064144
-0.03366783
-0.054220885
0.0467511
-0.08856183
0.06713978
0.05632
0.10481643
0.004083467
-0.015491089
-0.09404539
-0.084593266
-0.045108505
-0.121968925
0.060134947
-0.012112298
0.019255942
0.036136065
0.083251506
-0.025383621
-0.006912788
0.03425488
-0.043329604
0.05170458
-0.016832994
0.025024148
-0.037261184
0.10910947
0.10933611
0.05715053
-0.14543924
-0.021818167
-0.19362482
-0.021489402
0.13158303
0.107238345
0.047680307
0.021495692
-0.014216429
-0.13210025
0.061592706
0.03280238
-0.016848981
0.02544113
0.042742673
-0.034349225
-0.016702924
-0.014523535
0.10668142
0.036031295
0.10625954
-0.17775743
-0.09299486
-0.006816168
0.13709813
0.032918215
0.06600279
-0.042260285
-0.0072128265
-0.034013506
0.08097301
-0.058343593
-0.048877668
-0.01816173
0.0153518785
0.05017901
0.16256863
-0.014401209
0.1079032
0.08256879
-0.032402787
-0.04544355
-0.032812126
0.09925249
0.07662476
-0.06695201
0.028086523
0.04870582
-0.033308137
0.06704597
-0.101272576
0.002335616
0.039784636
0.053465337
0.042070944
0.099540986
-0.033561874
-0.0005397466
0.09935925
-0.033496507
-0.13835768
0.09015276
-0.06891939
-0.14421622
0.066492885
-0.029665645
0.0867259
0.05080899
0.035091113
0.011604016
-0.0076385275
0.00539247
0.05455743
-0.047119826
0.10220374
-0.018341472
-5.151998e-05
0.025419867
-0.08790644
0.13700092
0.044462707
0.071369074
-0.076303236
0.08023609
-0.12805972
-0.0545245
-0.014789268
-0.01598013
0.03853086
-0.034506213
-0.11974309
-0.1073201
0.0061018146
0.10610251
0.06550705
-0.049147513
-0.0068389615
-0.039194167
0.0005710954
-0.07659775
-0.017680971
-0.12518866
0.2045333
0.053347297
-0.07136377
-0.008073675
0.15657951
-0.0045220316
-0.0064424593
-0.14751609
0.015990777
-0.06361022
-0.07254769
0.04064312
-0.069878615
-0.12004239
-0.048432555
0.040889084
-0.043734305
-0.05474293
0.08834344
-0.06702669
0.020239048
-0.18698716
0.022387821
0.025927726
0.00058577314
0.024710804
0.049908288
-0.047386646
0.040438395
-0.015096779
-0.01948987
0.084986426
0.07484047
0.069090076
0.11467956
-0.06469048
-0.0056997975
0.087372966
0.09493814
-0.052678857
-0.0038989543
-0.011707319
0.026721185
0.06874803
-0.17125802
-0.10894768
-0.05801625
0.03455966
-0.0051248358
-0.002212468
-0.14718959
-0.124593996
-0.036716662
0.021793485
0.02512527
-0.07038279
-0.02022266
-0.041712936
-0.17647101
-0.045864947
0.09397795
-0.07906454
0.024891784
0.018052138
0.13205805
-0.021033831
-0.15736648
0.04338615
0.06393548
-0.02982381
-0.0648282
-0.056533337
-0.058896128
-0.08562928
-0.057991866
-0.06072121
0.07018986
0.03401079
-0.08034988
0.033134326
-0.045233946
0.045675714
0.06487883
0.023701245
0.010761374
-0.07094357
-0.028782185
-0.09503698
0.08771522
0.06675249
0.07024014
-0.07471859
-0.100153945
0.055128187
-0.0017019688
-0.10216799
0.015304748
-0.00082181155
0.07449794
-0.09620195
-0.0266738
0.12204261
-0.055368327
0.010780014
0.13311149
-0.12797473
-0.031330362
-0.099226214
-0.0050241402
-0.058861718
-0.01726848
0.013026546
-0.08485356
0.033032343
0.022160973
0.0288137
0.13361894
-0.072806686
0.04305913
-0.035150044
-0.066722065
0.044841874
-0.018497007
0.0495048
0.020633291
0.088219926
0.0014631068
-0.006842983
-0.048886754
-0.1578539
-0.022533434
0.059122413
0.018163119
-0.059721783
-0.030039642
0.08367229
-0.044214584
0.033307042
-0.116003074
-0.0103368545
0.116424106
0.06329387
-0.031405214
0.08181474
-0.0071648224
0.031870678
-0.08241804
0.13419187
0.09647959
0.008482028
0.025619615
-0.060231235
0.10778258
0.07286385
-0.048710663
0.06653461
0.06718255
-0.047641158
0.075196676
-0.06415337
0.0023288713
0.05643037
-0.00024295386
-0.106280476
0.039532572
0.033320095
-0.03106102
0.050253235
-0.1082775
-0.05305043
-0.035520125
0.069239706
0.08200037
0.04449154
0.07478918
-0.019418437
-0.066051506
-0.04561857
0.0062372424
0.102217585
-0.10555058
0.13990322
0.13815986
-0.06328489
0.010642227
-0.071610115
0.011158741
-0.05846733
-0.10867603
0.11249604
0.03960902
0.039933857
0.040776882
0.031533554
-0.022944735
-0.061041817
-0.1028887
0.09908783
0.07174161
0.08127991
0.11282966
-0.010518431
-0.020422641
-0.072104305
-0.035243694
-0.034019135
-0.069594234
0.004951883
0.011120483
0.035749476
-0.09337562
0.035587743
0.08718592
-0.019566758
0.07501108
0.099170454
-0.037459716
-0.13164198
0.026923072
-0.029193316
0.11634636
0.03371003
-0.124490224
-0.09155976
0.08356758
0.010831029
-0.0056389594
0.035713058
0.017453704
-0.10591299
0.03819759
-0.11137499
0.051196143
0.029096471
-0.05124012
-0.03232783
0.07837373
0.086193904
-0.03546889
0.06336219
-0.03748894
-0.044468492
0.14031701
-0.06917035
-0.097077064
-0.053128913
0.0060279346
-0.059508245
-0.033923566
-0.10504276
-0.0012199697
-0.1446447
0.036000554
-0.035587307
0.0370071
-0.08613325
-0.016368745
0.3435722
-0.08620152
0.19290248
0.07626712
-0.04562133
0.12981276
0.027952353
-0.17575426
-0.07935173
0.07427273
0.011444254
-0.05893706
-0.024441052
0.048002493
-0.12206273
-0.056488607
-0.04744235
0.0011921418
-0.00407634
-0.070670925
0.09528321
0.05231563
0.102374256
-0.052173514
0.0077123987
-0.07321283
-0.08526234
0.010999846
0.029929766
0.1676591
0.04675876
-0.08770064
-0.10758447
-0.31953958
-0.11997431
-0.09901082
-0.0675982
-0.029045487
-0.04096669
0.005826296
0.09973043
-0.06265342
0.13247761
-0.26636982
0.00920905
0.023311306
0.03666204
-0.11322659
0.07695736
-0.053643562
-0.03588713
0.085960545
0.13582897
0.18015632
-0.08445925
0.017244415
0.015922304
-0.016101029
-0.1282317
0.00808325
0.22073926
0.16806781
0.027727943
0.12847994
0.18243548
0.05631303
-0.1302927
-0.06939145
0.107037045
0.038637932
-0.0734374
0.09303835
0.1126232
0.047959626
0.23860435
-0.14382307
-0.078395076
-0.073530056
0.02200026
-0.07583646
-0.012335371
-0.09015408
-0.08542767
-0.09831655
0.010864953
-0.029653464
-0.033541694
-0.08233969
-0.079719506
0.0027267938
-0.23917294
0.06368282
0.03274169
-0.04255874
-0.20433104
-0.086418964
0.09659555
-0.053105704
0.07324366
-0.016714994
0.23829515
-0.043837767
0.062904365
-0.008812309
-0.029794786
0.076896615
0.04497588
0.12015338
-0.09147587
-0.04080864
-0.15369141
-0.016781935
0.16479202
-0.09983075
0.10855621
0.0008355091
-0.07650605
0.014861234
0.24548897
0.026661709
-0.0567579
0.04725035
-0.21085262
0.14569111
0.13066258
-0.035999857
-0.15937735
-0.12598677
-0.038175642
0.08824241
-0.02423658
0.032932736
-0.23044287
0.061221626
-0.093647815
-0.120901704
0.14190039
-0.080187514
0.09191128
0.06000621
-0.10360089
-0.069037236
-0.11232183
0.002712202
0.12104097
0.18632877
0.04227066
0.057611454
-0.052828815
-0.053602494
-0.072643824
0.08513637
0.08031326
-4.3051827e-05
0.020112924
0.1514645
-0.060205206
-0.38588262
0.022968518
-0.08939281
0.07721194
0.08095945
0.10822348
0.049832154
0.06392531
-0.17216502
-0.024056112
-0.03526479
-0.13347122
-0.035620615
-0.118596226
0.09037372
0.047508284
0.051247247
0.08029383
0.048456278
-0.034004424
-0.0158536
0.1775444
0.022833923
-0.050718926
-0.11424752
0.21321929
-0.09467487
-0.03969671
0.07220931
-0.0296862
-0.0640083
-0.20332924
0.0069865463
0.06613307
0.012125747
-0.14377375
0.0040827477
-0.13480851
0.044614628
-0.117372826
-0.15087606
-0.16905625
-0.15237562
-0.12509382
-0.037633076
-0.110264145
0.01714611
0.110007025
-0.022478575
-0.12094341
0.04097549
-0.031202417
-0.105343
-0.13751702
0.007265986
0.026631083
0.0828461
0.09983063
0.08741602
-0.029544389
-0.071126595
0.13345143
0.07538245
-0.017420338
0.045039095
-0.17290093
-0.048653014
0.055021007
0.026401974
-0.10897295
-0.061721385
-0.2898346
-0.06885596
0.05046542
-0.088485
-0.047416087
0.16107279
-0.19945742
0.1052845
0.118283644
0.008583785
0.06647791
-0.015135281
-0.048409045
-0.05788586
0.034077205
0.02575466
0.03067545
0.106948785
-0.17730625
-0.06040425
0.18313271
-0.016201816
-0.02938766
-0.04311398
-0.010404558
-0.012385941
0.053265482
0.13095848
0.035412427
-0.051739007
-0.20316114
-0.17683475
-0.063450456
-0.052124437
-0.006407554
-0.045533713
0.0071150055
0.09851986
-0.030902445
-0.3490471
0.104804404
-0.086308904
0.0070999013
-0.07699794
0.027455557
-0.058871556
-0.12022013
0.019345455
0.21696612
-0.050029814
0.075160004
-0.10357791
0.11487373
-0.013391347
0.0039030549
0.046055883
-0.13892989
0.116187185
-0.06948866
-0.09345044
-0.052692298
0.021279972
-0.092399225
-0.10015827
0.038599815
0.06342768
0.05939483
-0.16657855
-0.020397827
-0.08941007
0.15215681
-0.0094359685
0.045225333
0.054110028
-0.047178447
-0.22994266
-0.07290657
-0.04641995
-0.1280558
0.03812862
0.012001884
-0.06328011
-0.03052445
0.20736355
0.11946606
-0.1745714
-0.014123617
0.084992155
0.070654705
-0.003926959
-0.12280466
-0.1221877
0.031526085
0.013962564
0.15780583
-0.015501392
0.15119989
-0.024664016
-0.06957035
0.08225518
-0.012187895
-0.059575297
0.19917174
0.103297554
-0.07801734
-0.014024579
-0.039661653
0.021157058
0.076132886
0.033403743
-0.023091802
0.021850463
0.07716201
-0.067653194
-0.08841054
-0.11357938
-0.016681844
-0.002606976
-0.046007246
-0.032317825
0.031572033
0.043544568
-0.0015453716
0.058873054
0.020645723
0.114229195
-0.096370034
-0.044961587
-0.13103637
0.13660482
0.16488
0.024857052
-0.14599709
0.089968644
0.07798956
-0.12811956
0.12964018
0.06813128
-0.037516672
0.18600406
0.2104415
0.018105047
0.0144517375
-0.039762747
-0.17405123
-0.03018646
-0.048168834
0.0971226
0.027361318
0.0035728868
-0.09389477
-0.12586723
0.074998274
-0.020483803
-0.06579962
0.0459012
0.153067
-0.16910276
0.08995974
0.096235275
-0.040360697
-0.043240305
-0.06477494
-0.09108287
0.01966926
-0.049142335
0.062284447
0.24408135
-0.04783661
-0.09271813
-0.081475705
0.03014583
0.035203516
0.0002611109
-0.031961247
-0.077460706
0.107858025
-0.0147857675
-0.015480434
0.023515956
0.13202289
0.05245948
0.01504494
0.0067972364
-0.008408464
0.81578916
0.09187938
0.057424407
-0.07362097
-0.41384742
-0.075387575
-0.02517746
0.123587996
0.32045078
-0.17714761
0.10043396
0.37257308
-0.08202574
0.13696699
-0.4147395
-0.100267954
0.12373246
-0.2549663
0.073429085
0.01551289
-0.17215537
0.091595694
0.16900493
0.0037953483
0.119598165
-0.37848458
0.07001085
-0.06306594
-0.25755543
-0.04905976
0.10861057
0.233594
0.3165511
-0.12998508
0.32045865
0.29539448
0.07207331
-0.19919503
-0.05460441
0.1817978
0.35798484
0.20505588
0.075194724
0.24938294
0.2824148
0.25144786
-0.20746504
-0.13031018
-0.117979564
-0.18767129
-0.063988835
-0.06783811
-0.007654157
0.089327104
-0.07860079
-0.04443337
-0.20936842
-0.09873159
-0.12424518
-0.10272401
0.040163398
-0.31409645
-0.073428035
0.19120544
0.031628482
-0.12377523
0.0039072162
0.42452505
-0.10866034
0.029344141
0.06667029
0.45903262
-0.22655517
0.19354321
-0.09849531
-0.032998674
-0.15145202
0.30263245
0.17497428
-0.122466594
-0.11241837
-0.3073045
-0.0741321
-0.08899062
0.039793797
-0.084808
-0.16147459
-0.04965214
-0.096507974
0.5527085
-0.07991543
-0.37526524
-0.055934124
0.11564896
0.0009270858
-0.0069035897
-0.22093856
-0.2895453
-0.16772471
-0.0860472
0.16294104
0.3694115
0.0026119663
-0.3382288
0.067674346
-0.04071224
0.0873873
0.062276874
-0.04363323
0.24993186
0.30329537
0.120254695
-0.069683105
-0.0461251
-0.14642027
-0.023476204
0.28149307
0.11799664
0.07071369
-0.22241507
0.05122714
-0.034096546
0.04157399
-0.22822915
-0.14077087
0.008453982
-0.02886817
0.03845292
-0.08660516
0.06487042
-0.021799557
0.044401925
-0.0045183776
0.020529823
0.045483276
0.023651201
-0.07596428
-0.016524162
-0.01001669
0.02937628
-0.21136962
-0.06626918
0.008958886
-0.023268754
-0.0715147
-0.1348715
0.12261968
0.045398805
-0.076978624
0.024905428
0.0118982205
0.0006505236
-0.05974685
0.09672505
-0.06652057
-0.042090047
0.07131506
0.04155404
0.0214491
-0.06387409
-0.0670892
0.026007619
-0.0030473294
0.06999973
0.109700605
0.084992334
-0.002996461
-0.09452894
0.029738449
0.15541045
-0.058010302
0.0929544
0.042322185
-0.014826532
-0.005571892
0.018682284
-0.04555079
-0.02519264
0.042436995
-0.011205499
0.0831735
-0.08507558
-0.0018970218
0.05391051
0.017298132
0.002224622
-0.07608179
0.009634215
-0.044857815
0.05349032
-0.018731259
0.005959688
-0.014908419
0.07112761
-0.014985714
-0.08675747
-0.030650886
-0.0441629
0.10432686
0.04077094
0.08702998
0.031149799
-0.020061532
0.07888658
-0.16429302
-0.062226396
0.102869004
-0.081344076
-0.12347627
-0.07294845
-0.090514876
-0.03556421
0.02842292
0.08375811
-0.04052063
0.0017723318
-0.117955975
-0.010343053
-0.11870368
0.024095932
0.05948451
0.21181652
-0.029958198
-0.05543867
0.08745537
-0.09785952
0.013442868
-0.20210394
-0.018410984
0.08730192
-0.06844607
-0.020462383
0.026374472
0.061440382
0.113145605
0.054765686
0.028257212
0.12070161
-0.14439586
-0.041107118
0.013170783
0.1339818
0.017675927
-0.021693287
0.03532611
0.02270353
-0.010771236
0.042346027
-0.02151195
0.048512254
0.03705168
-0.13474317
-0.009941205
-0.015049874
0.06825167
0.0011980953
-0.8621329
0.049664546
-0.0965369
0.10218535
0.43346015
0.26348388
-0.02160683
-0.04280315
-0.25407356
0.111714214
0.04478029
-0.19021243
0.103256345
-0.1634534
0.15064259
0.10793254
-0.07153843
0.19311145
0.089000255
0.023009846
0.16400379
0.067566216
0.12597765
0.14236541
-0.19848396
0.13777812
-0.08567167
0.043377098
0.15455222
-0.024825912
-0.07353994
-0.19649114
-0.15222286
0.20613366
-0.10436342
-0.23288329
0.11980587
0.0008216967
0.16110729
-0.24290405
-0.20346953
-0.07286373
-0.14795314
-0.23595402
-0.09886942
-0.4965574
0.14817569
0.20701224
0.013874538
-0.109472156
0.09167295
-0.14055447
-0.48838374
-0.13069217
0.069661476
0.13521598
0.024609726
0.25001532
0.18500258
-0.057227053
0.03873801
0.52314824
0.2426785
0.02403153
0.076761134
0.046619076
-0.06331882
-0.22313905
-0.06921148
-0.038696002
-0.07740273
-0.32666847
-0.039731875
-0.14534557
0.25488293
-0.091958776
0.23584604
-0.33293775
-0.052367322
0.17803724
0.17772065
0.18706894
-0.18642615
-0.19996077
0.033299055
0.18982463
0.095442295
0.03338408
0.05565948
-0.53997785
-0.03975734
0.052951224
-0.0022741214
-0.05224263
0.06890062
-0.17511691
-0.11339258
0.20072806
0.07010117
-0.14395235
-0.03743008
-0.2965604
-0.26042652
0.04579974
-0.20596173
0.1605915
-0.09016898
-0.0012107323
-0.14114074
-0.13512471
-0.4755134
-0.11391847
-0.05196147
-0.1466867
0.13966437
-0.021513004
-0.39305717
-0.010952329
-0.05422244
0.5969057
-0.0010547908
-0.072877444
-0.065036945
0.13879494
0.030497488
0.1344336
-0.05822509
0.019282455
0.31944034
-0.13611244
0.094885014
0.041427266
-0.11275423
-0.033624753
-0.012509568
-0.15837869
0.0094023375
0.22830535
-0.017861264
-0.09485288
-0.071884446
0.17548262
0.0040531997
-0.048432674
-0.04638946
0.0043160124
-0.2759548
-0.01973891
0.044875685
-0.27388343
0.08293209
-0.0347554
-0.04971373
0.001117764
-0.004960469
0.042196337
-0.120826185
0.10831131
-0.045490142
0.09160756
-0.024247376
0.017356586
-0.19564104
-0.099348865
-0.11677358
0.22499835
-0.17604806
0.15230699
-0.0066013215
0.14236245
-0.009613615
-0.028872767
-0.22694938
0.14512032
-0.020438438
-0.016694235
0.14030923
-0.24704626
-0.09981507
0.10994844
0.15823737
0.01004671
0.10969031
-0.0019109156
0.19384573
-0.16934541
-0.093075186
0.21091034
0.14952645
-0.07997309
-0.02464358
-0.01393575
0.036603376
0.113805376
0.3004604
0.08774862
-0.048202395
0.058813896
0.14733556
0.1333858
0.026157761
-0.19990747
0.017931692
0.072470844
-0.15811214
-0.10779881
-0.036045864
0.1716649
0.07163024
-0.05907074
0.3078623
0.14599296
0.11928846
-0.034586206
-0.15449104
-0.028500369
0.057506777
0.019646663
0.07481616
-0.17849974
-0.0598882
0.007785755
-0.026639698
0.18755214
0.059283286
-0.095854305
0.030035466
0.25142184
0.10892989
0.030070642
-0.027197806
0.26510772
-0.06860699
-0.03332702
-0.023871645
-0.124378726
-0.11027344
0.36067474
0.09725902
0.058645044
0.040699866
0.15045927
-0.007760738
-0.04387354
0.20384462
0.17111245
0.11964881
-0.40608862
-0.04818976
0.033892207
0.031173471
-0.09692596
-0.11277643
-0.118580535
-0.1472394
0.23216331
0.67608505
-0.06471915
0.08632424
-0.10957147
-0.48514566
-0.08268209
0.06139138
0.033015475
0.12253843
-0.08226709
-0.06391081
0.10917319
-0.050522923
0.3080999
-0.40348312
-0.06011064
0.35559228
-0.16651922
-0.20401849
-0.005710285
-0.2528201
0.007643736
-0.052848868
0.04284617
-0.031051967
-0.08170539
-0.059068862
-0.061158385
0.19514795
0.034217127
0.11207219
0.57005006
0.069506235
-0.23391101
0.043103103
0.44133312
-0.23470402
-0.25263566
0.17717928
0.06757243
0.091787755
-0.09773148
0.14886078
0.28782523
0.03244568
0.45407587
-0.33160624
-0.23413521
0.09090159
0.16953316
-0.041559402
0.16120179
0.4488195
0.16760427
0.07056492
-0.041277062
-0.2331896
-0.21801895
-0.003833973
-0.081413776
-0.17450367
-0.3948947
-0.07087638
0.00812363
-0.17146406
-0.008553585
0.0071988124
0.19360483
0.03807216
0.31022742
-0.02358393
0.24459492
-0.13461128
0.091684505
-0.012350163
-0.05448042
-0.2139356
0.32574594
-0.064210586
-0.3171036
0.083442524
-0.29877803
0.12965223
0.16634712
-0.080401815
-0.15442531
-0.052216083
-0.052719258
-0.18513727
0.69003445
-0.005677601
-0.011677648
-0.065134235
-0.14014135
0.18615782
0.19888608
-0.24070019
-0.5131217
0.22493535
-0.22088677
0.064336106
0.31456816
0.39365482
-0.2753041
0.12484505
-0.12579253
0.16594686
0.18209301
0.081969544
0.32491693
0.20508325
0.063777946
0.04606706
0.40940097
0.121251576
-0.193655
0.4284206
0.08984905
-0.006293078
-0.40879247
0.2417551
0.001528319
0.07319593
0.016350644
0.18253826
0.115140766
0.044127256
-0.0113697415
-0.14663666
-0.09333027
0.0071544372
-0.013016714
0.002941494
0.07704306
-0.0138846915
0.054850932
0.03067156
-0.0926426
0.026150532
0.09061233
0.016932884
-0.06870528
0.0066166925
-0.07048106
-0.00079466245
-0.007890712
-0.03409317
-0.009175362
0.10003827
-0.0055206823
-0.0036285496
-0.035921894
-0.031106494
-0.037729535
0.1446466
-0.025082277
0.012425275
0.100194335
-0.07083543
0.18235269
-0.011554279
-0.12264252
-0.13379
0.003021933
-0.087456435
-0.016780222
0.09807892
0.05594504
-0.012933742
0.11144664
0.068864025
0.07600805
0.047869645
-0.046301685
-0.053774547
-0.06978017
-0.038040683
-0.020988528
-0.021467606
0.028603258
-0.13725273
0.19396165
0.011360922
0.1071023
-0.006824781
-0.01807473
-0.055590697
-0.06036546
-0.09366847
0.106895424
0.04103247
0.0024937892
-0.013139819
-0.0027602077
0.06283223
0.06191847
0.22055095
0.01868711
-0.04067651
0.062580556
0.008960594
0.07924955
0.052005604
-0.035223983
0.106354274
0.12221309
-0.046128646
0.015830038
-0.04777631
0.08219206
-0.07482759
-0.04739938
-0.056721743
-0.11115888
0.0010860426
0.0004335911
0.029841252
-0.03910776
-0.008296297
-0.01661709
0.17989638
-0.02761799
-0.1040575
-0.08142013
0.102696225
0.100066766
0.05991624
0.058686234
-0.066109
0.032123838
-0.0115578305
-0.0121389115
-0.04892398
-0.010565143
-0.06358021
-0.030926166
0.06934068
-0.005558689
-0.16180816
0.027012827
-0.047410414
-0.20230311
0.012798173
0.007097448
-0.084069416
-0.02877026
0.043384165
-0.09039798
0.027313083
-0.031591117
-0.082953855
0.056178235
0.008685455
-0.10182277
0.1426602
0.15936622
0.027220517
0.20063752
0.056781054
-0.05867806
-0.48926738
-0.14065811
-0.04267977
-0.044155482
0.15900528
0.05959495
0.10411284
0.050753906
0.034738947
-0.07886245
-0.53461164
-0.0073405583
0.07701579
-0.06334278
0.28951865
0.1160244
-0.08994252
-0.14582963
0.024675477
0.09514923
0.13097516
-0.055584952
-0.15956286
0.07577584
-0.067192584
-0.6512502
0.04994052
0.17408292
0.0637867
0.08617788
0.10333719
0.23645681
0.14779364
-0.31026155
-0.032960538
-0.09835699
-0.07318732
-0.18966249
0.021949686
0.26030204
0.15921725
0.083293445
-0.13206667
-0.15839583
-0.07102093
0.092124104
0.024556862
0.026261901
-0.043940347
0.05365737
-0.024817612
0.21173826
-0.15477017
-0.31135103
-0.1158186
5.3801217e-05
0.01758396
-0.40371743
-0.18388923
0.08663923
0.12355138
-0.068501145
0.08568867
0.08026334
0.0769622
0.20934585
0.031251084
0.33943504
-0.09778273
0.18069309
-0.13188104
-0.014017382
0.012099695
0.09255982
0.05204723
-0.07369943
0.10167752
-0.18134266
0.09369846
0.1305169
-0.09460369
-0.060364008
-0.17502289
-0.15648723
-0.092059426
0.1779332
0.047276605
0.0031816727
-0.12762271
-0.18096973
0.17601748
0.10183443
-0.118216895
-0.39907685
-0.09372444
-0.31414548
0.040030528
0.03396594
0.019529458
-0.17857233
0.219457
-0.1719434
0.061669894
0.018405488
-0.021964192
0.18988058
0.13590865
0.123069316
0.084722325
0.017792469
-0.3368015
-0.15242583
0.31764466
0.1263533
-0.0072200275
0.06298555
0.06934627
0.0042863595
-0.12035576
-0.07761341
-0.06940653
0.20330384
0.0038721582
0.016132599
0.39096072
0.015601201
0.13462792
-0.062778376
-0.12846832
-0.1948205
0.042946324
-0.09119525
0.41877335
-0.053318985
0.017894967
0.07339074
0.13827339
-0.052980043
0.046482977
0.059951596
0.18387316
-0.22133772
0.23959671
-0.030109322
-0.16775154
-0.09012186
-0.09116726
-0.04148692
0.2067119
-0.09496706
0.25486776
0.06087735
-0.101307936
-0.18788311
-0.058768857
0.19616574
-0.062713794
-0.07063905
-0.021145344
0.13440026
0.070282444
0.071978286
-0.09217995
0.1040091
0.0541375
0.24702962
0.05911892
0.06213267
0.014751625
0.2496742
-0.07430591
-0.028274508
0.009745639
0.066527165
-0.01447545
0.03203608
0.14138347
-0.09191325
0.100834176
-0.23520267
0.06536938
0.08416215
-0.019891214
0.14955598
-0.1721986
0.03387997
-0.08399472
-0.19276378
-0.091371626
0.012570015
-0.15347429
0.105783984
0.123631895
0.037939977
0.12968498
0.07067061
-0.077771075
0.16551447
0.06619938
-0.06579247
-0.21613373
0.089961514
-0.1964213
-0.08592796
-0.27096093
0.08267845
-0.008333982
-0.0084971
-0.0827136
-0.14621995
-0.04961174
0.04666835
-0.22644383
0.5386012
0.024571275
0.033327654
-0.18156268
0.18811165
0.119494565
-0.038435325
0.17634223
-0.037329018
-0.08801399
0.41349474
0.045417536
0.23318203
0.2266106
0.080407634
0.07271149
-0.18501452
-0.06926052
-0.050749227
-0.3625284
0.13481782
-0.14362092
-0.10911239
0.15648623
-0.05811692
-0.12974304
0.045094617
0.39506328
0.03291125
0.015030938
-0.05220491
-0.03835289
-0.09275749
-0.1468927
0.117098466
0.16330117
-0.04467287
-0.11659884
-0.040291686
0.13360365
0.07333862
-0.10373911
0.08085434
0.030984472
0.14733697
0.05348249
-0.030743184
-0.14267679
0.04912603
0.0067139436
-0.1637953
0.13370271
-0.04053428
0.04425602
-0.08483496
-0.20791854
0.06354152
0.06305701
-0.06354364
0.058638673
-0.09082164
0.06915577
-0.052959032
0.12372932
0.06697652
-0.016930051
0.031175768
0.0021832718
0.090544164
-0.0055863387
-0.018714322
0.08615607
-0.043372035
-0.09871415
-0.08658025
0.16167362
0.032445677
0.10481169
-0.061580334
0.17002758
0.02130119
0.083209075
-0.10798068
-0.03390355
-0.14696078
0.18065035
0.010276425
-0.11058864
-0.047879774
0.14533798
-0.10780978
-0.13412249
0.008790418
-0.12271843
-0.15713473
0.0076458273
0.16166444
-0.049501676
0.0810721
-0.065095626
0.22176781
0.0016611669
-0.13335763
-0.08425842
0.1569844
0.12664814
-0.1204965
0.07395148
-0.1211479
-0.009806349
0.011512985
0.10560513
-0.1318833
0.0078866435
0.09912997
0.021903152
0.08410779
0.0351069
0.12560956
-0.06880882
0.00460204
-0.04871249
0.048107013
-0.033180665
0.11812455
0.026212903
0.01892134
-0.01301657
-0.16408421
0.0051266993
-0.08429466
0.017075974
-0.04449001
0.06393528
0.008719208
-0.013111099
0.11446925
0.022008954
-0.0044402448
0.066438235
0.018252924
0.023137892
0.13427448
0.09968358
0.014297034
-0.09957004
-0.04990585
0.09359542
0.039482392
-0.09755328
0.12607917
-0.1393094
-0.0017224244
-0.010766164
0.009584161
-0.14444278
0.15797123
0.18875143
0.142461
0.052131224
-0.0056557693
0.014199148
0.10145456
-0.022279758
0.0588802
-0.020205209
0.021244254
-0.1790185
-0.010893925
0.05982626
-0.1070907
0.049071893
-0.11755347
-0.013186312
-0.042080205
0.0034756167
0.01305771
0.028371228
-0.053972963
-0.045540363
-0.011416932
0.08873803
-0.08848717
-0.13036591
-0.041695587
-0.008051049
0.02426454
0.06920951
0.05308015
0.02393295
0.062880516
-0.068340965
0.003205092
-0.023025377
-0.08316303
-0.02083684
0.030026877
-0.059014555
0.025633704
0.010584236
-0.066367924
0.010612633
0.04331991
-0.07272435
0.089504376
0.031250145
0.032573577
-0.10828305
-0.047277436
-0.008597178
-0.119426265
-0.053754535
0.11305175
-0.049951624
-0.06804397
0.106711015
0.04895388
0.0030126276
-0.06586429
0.19876479
0.047441576
0.04450181
0.0138000315
-0.03928901
0.019927083
-0.02714499
-0.02098521
0.049860194
-0.07240025
0.112328455
-0.038766585
0.053978987
0.037010036
-0.11080396
-0.05569471
0.049939565
0.035743464
-0.111158304
0.032605886
-0.029411756
-0.055595174
-0.033522792
0.040992234
0.10555262
-0.10146378
-0.009921345
-0.0875802
-0.011483022
0.104019746
0.0015566322
0.053252947
-0.010871938
0.06514279
-0.009019214
-0.10687991
-0.08461449
0.0076370547
0.00025696546
0.08596697
0.08958208
0.07457843
-0.033981048
-0.078658536
0.07436197
0.10101983
0.10407737
0.0034754567
0.026718313
-0.1330631
0.0079375105
-0.056213945
0.004118602
-0.013985208
0.051566955
-0.0394762
-0.0079920525
-0.013170931
-0.09058677
-0.08971451
0.1963873
-0.11979688
0.022348268
0.051101726
-0.041097216
-0.1552542
-0.045793064
-0.16173647
-0.02448662
0.005371846
-0.028515289
-0.020717973
0.07441722
-0.040797133
0.20048589
0.00593181
0.13399653
-0.051736504
-0.097611874
0.05903807
-0.21993238
-0.12456596
-0.03767065
0.16542554
0.18335962
-0.16585119
-0.059465505
0.18205255
-0.014750175
0.21687818
-0.25542694
0.051697876
0.41177434
0.029680662
0.03663203
0.12707852
-0.13724259
-0.024576543
-0.028975388
-0.020701878
-0.00085594517
-0.06750927
-0.044584494
-0.0510461
0.03199358
-0.16387679
0.0045984513
-0.0045051393
-0.069549315
0.019563772
-0.05989274
0.16480193
-0.08368383
-0.099134184
-0.11478388
-0.022284301
0.029319143
0.17894833
-0.13613403
0.009455938
0.05275918
0.14748538
-0.06914089
-0.106897414
-0.080290824
0.094462484
-0.12201627
0.12810397
-0.01605576
0.07863745
0.028855639
0.22379246
0.08847343
-0.11664116
0.06397836
0.00278322
0.09295812
-0.217215
-0.11939733
0.14926499
0.08645691
-0.08196841
-0.020418542
0.022422252
0.13074595
-0.04584927
0.10705318
0.08552261
-0.048725475
0.01062722
0.009677565
-0.11304031
-0.07061366
0.058268514
0.0247368
-0.03806305
0.065254636
-0.014146556
0.062412266
-0.108160354
0.07500656
-0.23967224
-0.05616482
-0.013232485
-0.045783594
0.069134265
0.11275543
-0.08437603
0.04931672
-0.049219135
0.0006595209
0.060016423
-0.039641354
-0.21198416
-0.061425928
0.006573867
-0.06684598
0.012003216
-0.031377513
-0.118063994
-0.08854261
-0.054051053
0.080133334
0.12546887
0.03499398
0.06325672
0.0618547
0.104977325
0.032794766
0.0867566
0.047760677
-0.008033115
0.14653094
0.06027985
-0.19029093
0.023385903
-0.029136311
0.041715026
0.055813346
-0.12519139
0.024857791
0.018520681
-0.08244126
-0.010662304
-0.062534876
0.026427567
0.11080153
-0.014336768
0.11923733
0.07046806
-0.009212729
-0.06771352
-0.066628635
0.06820793
0.034826465
0.017584607
-0.09003847
-0.10976336
0.03438735
-0.03341066
-0.011542551
-0.039406393
-0.04786488
-0.059639603
0.0842167
0.0607163
-0.051804345
-0.054051667
-0.06779964
-0.0014430325
0.009563805
0.064269476
-0.029028594
0.053670537
-1.0749529e-05
0.017220378
0.048779342
0.058964368
0.136044
-0.0723123
0.0062903874
-0.03610461
-0.0117448075
0.01928385
-0.16337982
0.017219549
0.049240552
0.16197483
0.025618318
-0.08664923
-0.05237507
0.10700438
-0.008781406
-0.034169804
-0.028481297
0.14229281
-0.05389699
-0.12571691
0.047063988
0.010269413
-0.03873606
-0.03899474
0.03883954
-0.04772536
-0.039786767
0.0074526696
0.053064626
0.024569727
-0.043057904
-0.099707894
-0.055997565
0.1140307
-0.13727604
0.09513496
-0.032825936
-0.114693284
0.0031098237
0.12717628
0.011126803
0.026837856
0.03199599
-0.011074535
-0.06608407
0.0545314
-0.0010944703
-0.05170282
-0.0149630075
0.021046255
-0.021763671
-0.008088332
0.034348108
0.014076285
0.04375075
-0.011824165
-0.10361105
0.022559924
0.035204284
-0.016954524
-0.020358847
-0.09947062
-0.054108955
-0.014044562
-0.0630305
-0.02179872
-0.04770441
0.017214155
-0.005342435
0.028984316
0.06862756
0.09441425
-0.0022433302
-0.059635855
-0.11916146
0.026715105
0.077542275
-0.14638157
-0.007447118
-0.016964113
-0.09622757
-0.0064099166
-0.028273726
-0.049141567
0.013349671
-0.11392335
0.031402923
-0.034856476
-0.10291792
0.028304912
-0.05376379
-1.5990045e-05
-0.24043348
-0.21109049
-0.9136508
-0.17423104
0.1353221
0.2466492
1.3227293
0.4319435
0.113544725
0.0779304
-0.6698662
0.097387224
0.018106712
-0.46873042
0.34206986
-0.39558855
1.3551315
0.25896758
-0.99764484
0.46891633
-0.10009992
-0.17718929
0.40331656
0.3778084
-0.28398243
-0.18827039
-0.17373991
0.19568251
-0.058600105
-0.22028373
0.23482427
1.1605492
-0.07753631
-1.5117428
-0.53196234
0.07060249
-0.024920668
-0.9641708
-0.23192255
0.5584182
-0.21955046
-0.30847308
0.0764755
-0.1844552
-0.14975946
-0.6407684
-0.23730658
-0.8535661
0.6571918
0.5776264
-0.058113966
0.29495037
0.20110483
-0.2301034
0.3193063
0.061536346
-0.22213495
-0.44282892
0.13361679
0.6545993
0.3755732
0.039554864
0.43579423
1.1513239
0.071165144
0.03813312
0.018515816
0.24137585
-0.17734656
-0.98372436
-0.36448634
-0.32657775
-0.15614772
-0.6407048
0.56424356
-0.43822482
-0.104645215
0.2921892
0.17202531
-0.62443453
0.0004475017
0.04657308
0.24449222
0.54735047
-0.23992081
-0.23841299
0.074695386
0.33546197
0.60413665
0.5021636
0.27191183
-1.5467169
0.10048966
0.24297684
-0.047576096
0.09877264
-0.29605696
-0.145353
0.2058419
1.597768
0.15282735
0.07892507
-0.03868721
-0.48881418
-0.20496954
0.6746976
-0.1753744
0.60839057
0.117778555
-0.19637373
0.60094166
-1.516904
0.21466096
-0.009499081
0.1901725
-0.17158557
0.47313628
0.23512769
-1.1385355
-0.3865323
-0.06986054
0.31442612
-0.25567573
0.03781327
0.1156592
0.013211053
-0.16200566
-0.1553165
-0.005941494
0.042969782
-0.028388647
0.0011595596
-0.12730232
-0.060762353
0.07546283
-0.06681646
0.037383433
-0.053076163
0.10300014
-0.0055176998
0.022514194
-0.096252516
0.059347685
-0.017925993
0.22674024
0.047991928
0.11870619
-0.069472626
0.090676576
0.034135085
0.0061365725
-0.024590638
-0.07959411
-0.020267587
0.09593754
0.050100848
0.017949684
-0.030884823
-0.022786466
0.012415404
-0.032550324
0.14211321
0.042588737
0.13808255
-0.04770624
0.047636613
-0.067982584
-0.058809172
0.046932448
-0.1036904
0.0723467
-0.13185611
-0.024410434
-0.049702354
-0.02462941
-0.11900747
-0.040961035
-0.11148958
0.21462078
-0.06354543
0.0109219365
-0.06403226
-0.3660161
-0.10618179
0.06245522
0.0034837432
0.18409368
-0.009101582
0.10869043
0.04222742
-0.07443571
-0.07480666
-0.020644229
-0.07685963
-0.023198921
0.2303265
0.10163047
0.11163678
-0.04611479
-0.017321352
0.008894102
-0.028934287
-0.10873972
-0.090044975
0.07723468
-0.032182645
-0.038442478
0.14848939
-0.07525541
0.015974903
0.05553218
-0.051874418
0.0039487276
-0.09698281
0.034921944
0.03026297
-0.09269286
-0.0027010893
0.1765025
0.19399486
0.046812523
0.06656985
0.08823343
0.11863061
-0.0030913828
-0.010977632
0.08969311
0.07771561
-0.18889195
0.07350031
-0.10060224
-0.1206073
-0.11292768
0.09412966
-0.0647114
0.051143907
-0.010080296
-0.029139997
0.051196348
0.10189229
-0.072860755
0.012701736
-0.12425944
0.08452746
-0.005432401
-0.03874481
0.01245319
-0.017480507
-0.037160166
0.011027337
0.050843243
0.099566616
0.1174108
0.0707718
0.0037365018
0.09486312
-0.27143443
0.09226895
-0.03650739
-0.08087587
0.108875416
0.10250488
0.23273063
-0.069853045
-0.12895843
0.11057884
-0.18096317
0.0008199404
0.10956158
-0.006536388
0.043358356
-0.1388079
0.33341792
-0.06463944
-0.072153576
-0.0006525204
-0.117158644
-0.13069564
0.0039164973
-0.11268761
-0.036364816
0.072214976
0.03132844
-0.05561562
-0.010743209
-0.15014653
-0.07914767
-0.03950106
0.062426437
-0.06174299
0.11085423
-0.045742415
0.0068384884
-0.069509394
0.23320425
0.02011973
-0.016683314
0.10636793
0.17408125
0.13220227
0.11761897
-0.14627466
0.017360639
0.05049412
-0.0093539925
-0.03405131
0.09996119
-0.0062426124
0.011645867
0.06884589
-0.02965741
-0.02927241
-0.08368351
-0.06078202
0.01495417
-0.005704577
0.09989932
0.048076443
0.06340325
0.06812576
-0.002334183
0.008136502
0.019803336
-0.06307916
0.13173272
-0.06500101
-0.04005852
0.075346045
0.18062556
-0.08876369
0.17207322
-0.10278818
-0.0137801375
0.15268545
-0.13171355
-0.14379787
-0.061924778
-0.022413207
-0.020036552
0.057208847
-0.026025295
0.011698913
0.10409112
-0.017601637
-0.0048038717
0.17121927
0.14195356
0.056829337
0.057072625
-0.067016974
0.034584735
-0.02965865
0.052784767
-0.018897783
0.0744207
0.1502941
0.20218454
0.0059001516
0.10273454
-0.11428951
0.03157264
0.17185633
-0.1476875
0.07556117
0.016795488
-0.1439419
-0.038253784
0.029682918
0.21090621
-0.06686004
0.12494957
0.07618351
-0.10203156
0.052122526
-0.042111013
-0.019618077
-0.09547048
-0.041741047
-0.12393248
0.12957783
0.0914948
-0.0039095595
-0.059010644
-0.06972174
0.0146680605
-0.020608528
0.104586765
0.07961257
-0.05174775
0.022051694
-0.0838269
0.047192793
-0.10360141
0.025104718
-0.022694401
-0.12789857
-0.0017130997
-0.0020674905
0.03392482
-0.053905874
-0.13929959
-0.097145274
-0.07897719
0.1091363
0.1094219
-0.06298151
-0.040544726
-0.12681071
0.07549013
-0.059646234
-0.1478496
0.025387207
-0.0898853
0.14509687
-0.036406063
0.030163564
0.01061864
-0.09344924
-0.1564851
0.15696192
-0.14954582
0.33184966
0.13696128
-0.13459937
0.06490638
-0.04767107
-0.10097886
-0.04169569
0.052179463
0.12927066
0.04610906
-0.061491735
0.08554912
-0.113336965
-0.078651965
-0.08171592
-0.063105226
0.1614265
-0.21823479
-0.015200376
0.051391993
-0.033066396
0.0050441734
-0.07318084
-0.08438924
-0.005736778
-0.18002915
0.01713965
0.08771139
-0.1147577
0.08411664
-0.18589827
-0.07769318
-0.0022146732
0.18289052
-0.10126995
-0.19442256
-0.07213862
-0.07838609
0.08826863
0.009986
-0.18085122
0.3168185
0.11948999
0.17072761
-0.033748243
0.106380925
0.018508196
-0.0363855
0.0494939
-0.034715306
0.06326604
-0.09045957
-0.06687529
-0.08574619
0.050813355
0.0924493
-0.03166417
0.03179366
0.013094795
0.06087523
0.10214621
-0.044860516
-0.025802432
-0.06822632
0.028783897
0.01725132
-0.035041932
0.043414462
-0.014367365
-0.07557836
-0.021993957
0.14338513
-0.010000515
0.07815296
-0.0059250793
-0.32492167
0.015440418
0.18491028
-0.024032647
0.036092788
0.01662032
0.084415466
-0.045444947
-0.0435542
0.100035705
-0.11448449
-0.13898778
-0.036050994
-0.083170354
-0.043053526
-0.038949344
-0.020270567
-0.1214563
-0.04664766
0.13294852
-0.039389342
0.08256315
0.010940208
0.06592468
-0.06534655
0.020293962
0.0013083449
0.07297459
0.06958252
0.063545026
-0.066950575
0.097064234
0.012167715
0.0063893525
-0.020270422
-0.062493034
-0.112345345
-0.03565806
-0.016914953
0.0173989
-0.025641654
0.11559397
0.06754773
0.013881286
-0.024780413
-0.06362874
-0.07971853
-0.023273226
0.0072345193
-0.13169801
0.003055676
0.002971571
-0.009285516
0.0014452756
-0.14875658
0.084205605
0.07357405
-0.024697285
-0.045960866
0.07908085
-0.16727154
-0.03249681
0.065414555
-0.11190141
0.16871509
0.011935561
0.10388755
0.096599944
-0.094741754
-0.102269605
-0.034937948
0.004314866
-0.055796646
0.035861682
0.0027140467
0.004141734
0.043511458
-0.108004585
-0.10099097
-0.10092923
-0.15141425
0.12400957
-0.061109573
0.06863538
-0.11053846
0.035756275
0.08120469
0.011631318
0.03724172
0.046899803
0.058339033
0.10647293
0.01215248
0.05511777
0.2118631
0.08165624
0.031346064
0.096105866
0.027505448
-0.1062846
-0.028352736
0.020381939
-0.06392372
-0.06932271
-0.0045237564
0.05288541
-0.06324151
0.07822377
0.022698771
0.07574427
0.14553224
0.10286412
-0.08273651
-0.04104641
0.017425675
0.082910836
-0.0077440385
0.09505123
-0.04112367
-0.061590753
-0.042510595
-0.28081593
0.0484952
0.19905911
0.0059819827
-0.058390338
-0.05644059
0.039310988
-0.049392793
0.026386281
0.0022787363
-0.12319605
-0.0060626515
0.08291617
-0.015693644
-0.023494372
-0.10991656
0.084146805
-0.020671181
-0.03855383
-0.08875557
0.0935966
-0.12307348
-0.121489406
-0.5210835
0.14360969
-0.32867232
-0.17956914
0.20845126
0.15895511
0.23246837
-0.46010566
-0.06325168
0.19362324
-0.010911602
-0.11974156
0.0063872198
-0.15152577
0.09757916
0.08965294
0.41951776
-0.09779318
-0.046006702
-0.32671845
-0.06215023
0.05486969
0.20814806
-0.26838177
-0.07544274
-0.17627744
0.08823381
-0.051083475
0.10440135
-0.35440588
0.29171884
0.22706741
0.110346146
0.0038531239
-0.094554424
-0.2840736
0.17074294
-0.4339393
0.10475098
0.40689772
-0.038541175
0.24152273
0.45807782
-0.057131972
0.092686854
-0.24626686
-0.06466943
0.2670889
0.026471699
0.040625814
0.14245372
-0.046157427
0.12190239
0.07861278
-0.1146704
0.17202662
0.019762076
0.15454742
-0.10769431
0.18990448
0.025238074
-0.16185094
0.21385248
-0.056298565
0.1447399
0.21152535
0.014200005
0.050053272
0.09561858
-0.15139669
-0.36342847
0.08749697
0.24123004
-0.30543038
0.14089471
-0.40985918
0.056750223
0.09658477
-0.3118656
-0.35319892
-0.12355677
0.17852858
-0.33078036
0.20844516
0.022144781
-0.11948122
0.15829372
-0.33998045
0.23050565
0.17644557
0.2160415
-0.1081117
0.035388984
-0.1134595
0.11361419
-0.08446881
-0.21296783
-0.18661469
-0.17055035
0.14927152
0.4257464
-0.08987728
-0.102150306
-0.086694464
-0.031263493
0.1569465
-0.26683095
-0.052466623
-0.44018638
-0.39513028
0.06585287
0.11100578
0.20022252
0.13148035
-0.015356765
0.045040004
-0.19612297
-0.014521061
-0.099834144
0.08743599
0.073324576
0.057341106
-0.010741041
0.007618807
0.04710371
0.10465645
-0.18213856
-0.0489315
0.015696045
0.027688297
0.121007256
-0.09742946
0.045744766
-0.078346275
-0.03201056
-0.024665672
0.016787551
-0.05186869
0.026492124
-0.05710061
-0.025046064
-0.014381515
-0.008175862
-0.09846882
0.14843567
0.09262471
0.027439086
0.011052962
0.07421993
-0.033782557
-0.036488507
0.041236714
-0.052085157
-0.08245244
0.046876244
-0.07848413
0.0056366404
-0.061411954
-0.110113434
0.09647897
0.06805362
0.06210202
0.0653451
-0.07477151
0.06642652
0.059891492
-0.069764145
-0.08742325
-0.063217334
-0.004532821
0.060805585
-0.036607817
-0.04205727
0.0613319
-0.025555624
0.12704942
0.018048117
-0.05721183
0.13349453
0.050657336
0.079132214
0.07641508
-0.020290619
0.069198236
0.02301443
-0.19426878
0.11709231
-0.018999716
0.035509843
0.045418806
-0.10300046
0.039890505
-0.0057978826
0.015616293
-0.020809848
0.10863944
0.23276268
-0.0199881
-0.05947383
-0.059864324
-0.003615912
-0.012565121
0.11269197
-0.011523206
0.016967168
0.048494823
0.18303978
0.019638818
-0.06215456
-0.04010567
0.14351393
-0.049665958
0.030247314
-0.06918141
0.045392007
0.052174773
-0.058996797
0.031072916
0.01260214
-0.022854855
0.057670757
0.044493195
-0.02328399
0.060128618
0.015814068
0.07848904
0.008874161
0.04849929
-0.0837929
0.15921354
0.059091933
0.0071177417
0.04726691
0.102681726
-0.032631263
-0.0104152225
0.09156345
-0.013829382
-0.11348203
-0.08972298
0.038941666
-0.017452799
-0.08697624
-0.022753932
0.045070995
0.06047378
-0.02614696
-0.06997562
-0.013907479
0.10523302
0.031187259
-0.0132529335
-0.08441738
0.091760956
-0.005041845
0.14177118
0.22983798
-0.014159203
0.23280638
0.23234418
-0.20452787
0.06491647
-0.25682792
0.42654794
0.019403826
0.049029488
-0.08926865
-0.12511426
-0.122722775
0.15124576
-0.15049154
-0.03131842
-0.42001793
0.006624949
-0.0073784976
0.33203796
0.2023067
0.086247034
-0.14631921
-0.06544959
0.15263987
0.20999111
-0.2647148
-0.04238255
-0.1655714
0.42578548
-0.092754856
-0.18784241
0.07837473
0.008958135
-0.14956006
0.010955945
-0.10634097
0.52622813
-0.07482224
-0.33746374
0.24189167
-0.23268974
-0.24151081
-0.060023908
0.0016786163
0.17943375
0.1476773
-0.33954617
0.11942877
-0.076694496
-0.35634065
-0.0040881736
-0.20298225
0.013155818
-0.35991073
0.040492777
0.0872583
-0.17178264
0.059181195
0.09397219
-0.11916291
0.17413118
-0.16263182
0.069442324
0.27186415
-0.24378285
0.024227982
-0.057540506
-0.11881913
0.0677909
0.38320535
0.017383708
-0.13635808
0.1476754
-0.059038617
0.21473984
-0.05732611
-0.21104245
0.19811372
0.04195723
0.14012642
-0.22785176
0.335653
-0.021737821
-0.013486683
-0.09796205
-0.0107777
0.17748399
-0.107709415
-0.26330906
-0.22527167
-0.10007002
-0.0828391
0.14215422
0.066942796
-0.071930155
-0.112128064
0.14180762
-0.055721816
-0.10300106
-0.31673878
0.17187212
0.010011741
0.06114752
-0.06960501
-0.20303367
0.06770778
0.012049544
0.1313801
0.14098224
-0.035018075
-0.074820064
-0.36353102
-0.08440359
-0.09217921
-0.034737512
0.28766236
0.09812309
-0.091583565
-0.03729062
-0.049752828
0.116328895
0.05828327
-0.15712324
-0.12596978
-0.040610336
0.24486794
-0.032746624
0.14745349
0.027240857
-0.05575418
-0.10891593
-0.19874877
-0.015825247
-0.10470305
-0.055801257
0.006033974
-0.13983923
-0.08326871
0.078582615
0.14891435
-0.07923007
0.100456744
-0.22480863
0.124956645
-0.030887375
0.15027943
0.12203125
-0.09497696
0.029608632
0.02368883
0.0513708
0.020783773
-0.045559924
0.13399597
0.17590824
0.053574737
-0.16608371
-0.13273261
-0.05563569
-0.104475155
-0.17279388
-0.16163571
0.035117187
-0.1288351
0.307254
-0.21928379
-0.011545365
0.109484635
-0.06611548
-0.03873955
0.145692
-0.22508499
0.09613715
0.090127505
-0.2292239
0.11540678
0.115058094
-0.11747379
-0.19233797
-0.19931623
-0.042559322
-0.04411263
-0.17884552
-0.019995278
-0.15301336
0.22260445
-0.01110411
-0.08729837
0.058437265
0.07495939
-0.042326115
-0.08171561
-0.22712901
0.12837127
0.086326264
-0.006860847
-0.1201699
-0.014679159
-0.05993796
-0.0784351
-0.10765525
0.19524519
0.0014353232
-0.08260652
-0.042168282
0.0987627
-0.059830785
0.0017141501
0.12089075
0.37862808
-0.15239993
-0.05936391
0.09870101
-0.06903207
0.022557553
0.1302698
0.052658472
0.029637748
-0.109013826
-0.19010946
-0.11402198
0.017449953
0.17850044
-0.10632134
0.06799006
0.035650097
-0.0852779
-0.24434975
-0.009390504
0.18767996
-0.27257258
-0.19634685
-0.34276393
0.10993507
0.0473693
0.19722822
0.22779934
-0.109802924
-0.16924632
-0.24059595
-0.49286598
-0.22220272
-0.33148494
0.19179313
-0.08272751
-0.013542446
-0.08808055
0.040215068
-0.24538206
-0.102092125
-0.07223295
0.052176345
0.057416454
-0.109638765
0.04586708
-0.673026
0.0014335488
-0.103742875
-0.0767159
0.18922631
-0.14241138
0.25029686
-0.27944985
0.08377985
-0.07221341
-0.0067056073
-0.04281831
-0.09081987
-0.06853111
-0.37353104
-0.15621094
0.49052095
-0.06542575
-0.017179748
-0.3649506
0.09177156
-0.110821456
0.27563474
-0.20387205
0.09684061
-0.20237713
0.21732873
0.02355151
0.14819485
-0.13955477
0.18833148
0.20272847
-0.10089347
-0.066324554
0.1986999
-0.07065965
-0.15410444
-0.5648584
0.27054277
0.2041584
-0.024937293
0.22199424
0.31342688
-0.013531993
0.16698258
-0.27813476
-0.064365365
0.63861364
0.00031620055
0.061344273
0.34202397
0.1980959
0.2165506
0.32847312
0.22281753
0.18631323
0.07337575
0.121792875
-0.19197968
0.20187278
-0.033071056
-0.095898814
0.046078388
-0.106193036
-0.10170408
0.3101928
0.060385566
0.1559954
0.06781773
-0.40277764
-0.24256092
0.052661147
0.25582775
-0.1928428
0.25242212
-0.11642639
0.2506596
0.28035754
-0.47226468
-0.42746937
-0.18137838
0.16964175
-0.37724572
-0.018845394
0.25235018
0.13982582
0.19076692
-0.33107242
0.05161767
0.32328558
0.24977997
-0.030053886
0.17878671
-0.23536113
0.052889742
-0.21197934
0.14466201
-0.052582398
-0.19738449
0.3976167
0.56082606
-0.13497095
-0.14861682
-0.16535988
0.08746618
0.41698584
-0.21205474
-0.028973196
-0.25203905
-0.23994505
0.022919355
0.28547373
-0.036181934
0.2033203
0.18648715
-0.03375128
-0.15756427
-0.18196796
0.22534396
0.0934441
0.034826793
-0.12188476
0.21170986
0.29948932
0.067763306
0.13439299
0.15445195
-0.07338288
-0.050935365
0.048865587
-0.008643177
0.00011875585
0.0415681
-0.074579425
0.072041854
0.14940105
0.021211686
0.0032200608
0.043607116
0.008318269
-0.0055839885
-0.11214663
0.123510875
0.24887815
-0.024002375
-0.023633461
-0.05405567
0.06886046
-0.10189453
0.020897945
0.04763843
0.0033861955
-0.018467909
0.018225534
-0.09626134
-6.38877e-05
0.13132375
0.060540754
0.005792244
0.035510544
0.018583693
0.022350905
-0.06386301
0.047532618
0.021959998
0.054940518
-0.024872756
0.07583791
-0.09001123
0.05347706
0.11086988
0.080512315
-0.10991712
-0.093945555
-0.053418573
-0.13645045
0.002905826
-0.062130578
0.12118841
-0.060977206
0.047065247
-0.1805935
0.15258662
0.031094912
-0.028209735
-0.00016324536
-0.046073657
-0.09598846
-0.081741944
-0.10246805
0.10250389
-0.011663546
-0.122385025
-0.047281366
0.02204262
0.017379653
-0.03611667
0.0924737
-0.08680671
-0.060175918
-0.04860515
-0.013456647
0.011888881
-0.04938056
-0.011405371
-0.01348858
-0.16606121
0.052796632
0.047577668
0.055124927
-0.0025654866
-0.05822212
-0.036858898
-0.064910576
-0.09229975
-0.08168082
0.04792818
0.11009296
-0.05367301
0.056376077
0.03086265
0.0023030313
0.03670905
0.10292232
0.016592087
-0.07019372
0.08600121
0.32058468
-0.04914307
0.11907191
-0.0058903913
-0.0078044147
0.097822756
0.092436634
0.015218432
0.0075572715
0.032888934
-0.122456565
-0.083392374
0.009993618
0.086470254
0.0114101
-0.010269802
0.03693082
0.059813578
-0.08855882
0.060277693
0.018529303
0.03535675
-0.075998805
-0.05774308
0.04369479
0.041202005
0.06862597
0.009151572
0.0133751845
-0.27796948
0.1371563
-0.09349437
-0.009740535
0.21457548
0.20273384
0.091620386
-0.18667303
0.047526304
-0.08818965
-0.0064326283
-0.07793514
-0.1365434
-0.26338652
-0.018483613
0.016231595
0.28743187
-0.14024912
-0.1477189
-0.23506472
0.25923866
0.13901441
0.16844057
-0.30796173
0.078597754
0.09798074
-0.06959593
-0.007827896
-0.016872356
-0.17065038
0.11875025
-0.03499698
0.1785566
0.0026895055
0.03147191
-0.03678162
0.023900986
-0.12412982
0.24625912
0.13136137
0.07596639
0.22587915
0.07944046
-0.12017222
0.048353788
-0.10303529
-0.18837981
0.16359033
-0.16965483
-0.14571829
0.016449036
0.12025784
0.1670804
0.13711503
0.047429677
0.025898727
0.100617364
0.08469227
-0.15972316
-0.079236254
-0.06011097
-0.13560568
0.09862081
0.058368113
0.0018043821
0.24611299
0.19612779
0.026709331
0.0025837328
-0.33530486
-0.24222794
0.13123545
0.023970379
0.091427155
-0.03730291
-0.12580808
-0.0407631
0.10746543
-0.15851428
-0.25009573
-0.14293511
0.17768107
-0.30324805
0.1494798
0.013314451
0.0389473
0.04818546
-0.067478
0.002551279
0.057387497
0.012790142
-0.034174953
0.07741005
-0.055796057
0.13100412
-0.066413246
0.08779702
0.102700576
-0.066389345
0.20657526
0.24917018
-0.08038154
-0.014283132
-0.06788957
-0.14041509
0.034303423
-0.112276405
-0.26600626
-0.26687586
-0.077762984
0.046746034
0.04051545
0.11591753
0.13728677
0.15702026
0.04721674
-0.49512902
-0.08839459
-0.025802659
0.20210642
0.17631075
-0.029348293
0.12873751
0.27156922
-0.008065499
-0.17870143
-0.037619177
-0.05807137
-0.045864772
-0.030573977
0.018007778
-0.071521066
0.18721482
-0.0052875383
0.2871936
-0.014998563
0.07411266
-0.104944974
0.10551929
0.15658768
-0.04192427
-0.076533325
-0.17052528
-0.07454018
-0.14151955
-0.1316331
-0.2580173
-0.36419073
0.031761475
0.04236908
0.30525783
-0.26300538
-0.091605395
-0.06154412
-0.11890115
-0.09271524
-0.08737632
0.04384387
0.12180011
0.17027393
0.1388029
-0.022506393
-0.031079698
0.021184899
0.06359824
0.04614662
0.28095287
0.19048405
-0.0007381226
0.09549709
0.06861934
-0.060373016
0.21001427
0.022592602
-0.11743365
0.27869064
0.10112938
-0.022624971
0.14634961
0.08013294
0.27055094
-0.18361005
0.28087178
0.10126696
0.00036115237
0.023439225
0.06036969
0.18268661
0.35726315
0.12010039
0.20379704
0.09255223
0.098633334
0.12956677
-0.011129436
-0.13083175
0.0013347957
-0.28062123
-0.27591592
0.028281583
-0.1450165
-0.12728596
-0.027036594
0.02410161
0.06062023
0.17550671
0.18941681
0.11409015
-0.0960662
0.1675961
-0.15910508
-0.01269596
-0.14757653
0.26442868
0.058982328
-0.22063388
-0.04966646
0.04291449
-0.11459483
0.038894527
0.002291397
-0.073845096
0.0149470465
-0.14737298
0.15036944
0.012630602
-0.012094108
0.19794013
0.3227863
-0.20802692
0.16576248
-0.008548681
0.0050783944
0.010655946
-0.21836086
0.0027262403
0.35761058
-0.05158395
-0.113800526
0.21459843
0.09607284
0.20402488
0.1322716
-0.13556632
-0.08159266
0.05355354
0.08273534
0.064514175
0.05264181
0.17268415
0.07499497
0.10393929
0.035560917
-0.19354314
0.13171288
-0.04777495
0.20948966
-0.103977166
0.19035006
0.015098013
0.005548179
-0.03832314
0.04771353
0.0397388
0.017546728
-0.043916624
0.17664711
0.18038966
-0.020113617
0.16261859
0.027028454
0.09459294
0.010826647
-0.07236378
-0.04206326
0.090099186
0.021952296
-0.015431656
-0.02235548
0.01504552
-0.011137976
0.058028188
0.2508331
-0.1848885
0.032637022
0.17035396
-0.19346769
-0.14630033
-0.05385345
0.008792499
0.09270034
-0.117768645
0.15769023
0.13803133
0.0027309705
-0.043455906
0.2182454
-0.19413614
-0.10956348
-0.12786666
-0.0014316399
0.11784343
-0.028391907
-0.19412911
-0.0023277493
-0.06635923
-0.18712212
-0.16422664
-0.029332537
-0.24834514
0.025118692
0.11818301
-0.06328807
0.03957749
-0.09859583
0.0531581
-0.070203245
-0.008065108
0.023726713
0.031606246
0.0051742764
-0.13089795
-0.14642313
-0.0039898837
0.089158766
0.033962954
0.12679745
-0.0066736904
0.058322825
0.135832
-0.044181008
0.007195332
-0.065755114
-0.031973336
-0.056857098
0.16334024
-0.011485246
0.09188164
0.12077208
-0.12466797
-0.03397717
0.1496886
-0.049160413
0.067778505
0.05079044
-0.097340256
-0.06833411
0.1524986
-0.024771152
0.011807412
-0.06741867
-0.03362217
0.2462952
-0.087763965
0.18579265
-0.06837356
0.009959899
0.040930673
-0.13742937
0.050340533
0.06003585
-0.053688664
0.19085114
0.076463975
0.0038007472
0.1890305
-0.02133083
0.14577891
-0.007250827
0.094998114
-0.08832804
0.092354596
0.011385027
-0.09224917
-0.018671552
0.16258125
0.02867803
-0.05544528
0.22627288
-0.20796648
-0.03864027
0.10909363
0.050924663
0.009718131
0.08547262
-0.04371565
-0.063725434
-0.04455526
-0.051241312
0.10543033
-0.00643431
0.07601368
0.10133487
-0.04050315
0.061701436
-0.02350699
-0.13229968
0.084208295
0.06988654
-0.06551844
-0.1459747
0.15602553
0.07383649
-0.07554706
0.17791592
-0.001894943
-0.113922074
0.5809354
0.03821409
0.033385
-0.06807823
0.0151611725
-0.14183651
-0.122720875
0.05164804
0.09637794
0.053451665
0.047261428
-0.035311628
0.011032734
0.030785797
-0.053994153
0.01629257
0.04119277
0.06884794
-0.019283973
0.06904537
-0.054098174
-0.09670969
0.1401937
-0.01926571
0.017114008
0.0342976
0.13969736
0.03127133
0.052425917
0.06289864
0.022796439
-0.083133824
-0.052129902
0.07283753
0.13446212
0.03020892
0.019671371
-0.021046191
0.0957101
-0.13531893
0.014899595
-0.048311796
-0.0804388
0.062314652
-0.03114785
-0.05204609
0.097196825
0.053354092
0.051632192
-0.04839149
-0.04009606
0.011153403
0.04523503
0.110795446
0.0079928
0.01585125
0.017891137
-0.07713098
-0.19172223
0.08785986
0.0019313263
0.12888929
-0.010763744
-0.073146
0.15051734
-0.0029560255
-0.1651234
0.024749804
-0.054454237
-0.08861754
-0.0002531091
0.03147503
-0.09938005
-0.09632167
0.032467876
0.01699829
-0.12364076
-0.033570983
0.014523512
0.048832208
0.1741401
-0.028101856
-0.15764585
0.078507714
-0.10928476
0.02500287
0.02066621
0.014857073
-0.085651405
-0.018891586
0.018262422
0.02749676
-0.02908875
0.025698595
0.0973475
0.151148
0.04324595
0.0024771213
0.024723114
-0.12810956
0.058325548
-0.09759879
-0.09775166
-0.14477204
-0.055510886
0.017278114
0.12265026
-0.2588089
-0.085288644
-0.030223718
0.037603304
0.006287558
-0.24032348
-0.096357144
0.14029217
0.024001203
-0.15035443
0.1293703
0.019297495
-0.12884949
0.07392724
0.27634525
-0.020698221
-0.109446146
-0.17734757
-0.010320162
0.08352348
0.10302076
0.42495456
0.02176288
-0.06825908
0.0010238386
0.099603884
0.12982267
-0.13056989
0.12963253
0.19178158
0.0775826
-0.18605366
0.13387957
-0.0015625198
-0.13015082
-0.15517753
0.016489329
0.07016634
-0.23928723
0.116450354
0.123950765
0.18210839
-0.039456222
-0.28243858
-0.0053886743
0.1546044
-0.058800627
-0.14965028
0.07644578
0.11995173
-0.1629395
0.21671313
-0.01683397
0.070828944
0.13926747
-0.0042532342
-0.022237182
-0.0672316
0.15421203
-0.07682
0.089756235
-0.19401526
-0.06638048
0.22447784
0.059950616
0.048952598
0.10957955
-0.13557163
-0.09911033
0.064504035
0.07303853
-0.08417986
0.15792303
-0.122027025
-0.0068060267
0.0041175648
-0.09219918
-0.143635
-0.015922632
0.008403745
-0.15018022
-0.0024876301
-0.02531762
0.08633735
0.12381468
-0.20673293
-0.034777157
0.23864697
0.041235834
-0.08272822
0.26859027
-0.024288336
0.0065447367
0.036579985
-0.09087244
0.07285885
-0.015400941
0.24238881
0.24876289
0.098255716
-0.04704811
-0.09745992
-0.09949806
0.17663066
-0.18695112
-0.05213485
0.012208817
-0.1646167
0.0077888374
0.006284294
0.02554023
-0.08486506
0.13221028
-0.068466924
0.0634936
0.07715654
-0.046781257
-0.02715817
0.053395238
-0.0028818275
-0.017202543
0.1708558
0.09722168
0.051759373
0.032738827
0.0112006385
-0.024542525
0.009713478
0.09082874
0.10096206
0.023787273
-0.08816137
0.0044361833
0.011564901
-0.011464424
-0.038385753
-0.14460592
0.015496553
0.013751133
-0.22261073
-0.048967667
-0.089044735
-0.06419792
-0.07518851
0.074508764
0.12172626
-0.051431347
-0.028103536
0.059208963
0.41306445
-0.008066416
-0.0057128053
-0.13329133
0.025896888
0.022749975
0.03580045
0.005027471
0.06819437
-0.08107668
0.13515465
-0.0513466
0.0044581527
-0.05032536
-0.039313976
-0.029748578
0.05847709
-0.027963556
0.028207008
-0.088809915
0.02393241
0.09678125
0.040741596
0.085374966
0.012129272
-0.001273199
0.050130732
0.056127198
-0.006599479
0.09147219
0.07566524
0.012813531
-0.093749315
-0.10328117
0.018579435
0.08191277
-0.0014072871
-0.063279875
0.08139523
-0.039413583
0.014498964
0.1050923
-0.046222813
0.012598347
-0.06173626
-0.08182147
-0.048278444
-0.025833398
-0.08688864
-0.07246277
-0.042571723
-0.06105318
0.006002345
-0.021193862
-0.00037961933
-0.023566503
-0.08467188
0.07146947
0.049386147
-0.026491886
0.12539953
-0.054888815
-0.20968665
-0.021546789
0.092893526
-0.017283289
0.08188197
-0.0017742103
0.015950132
-0.12662692
0.034888882
-0.05623994
0.0754435
-0.053967234
-0.023853356
-0.10877358
0.041128956
-0.12597857
-0.064387806
0.095874086
-0.025041884
0.12384978
-0.049004234
-0.0044094888
0.054773167
0.08215933
-0.016362797
0.0014482039
0.010517107
-0.032104902
-0.006726413
-0.07768895
0.0073256004
-0.08446548
-0.13515835
-0.0344283
-0.14042994
-0.05936135
0.053727884
-0.041262336
-0.0026210856
-0.02977292
-0.005173592
0.061853174
0.1171225
1.0470854
-0.16954115
0.2710139
0.28694478
-0.30939206
-0.1500065
-0.7602081
0.51053196
0.107651144
-0.026248716
0.19974878
0.36067772
0.011032736
0.5219254
0.3821321
0.41489252
-0.8954219
0.5322283
0.96305364
0.7966712
-0.13768242
0.022131445
-0.86699426
0.00050179707
-0.085324585
0.23258112
0.06922642
-0.021573827
-0.2637553
0.78713095
-0.14091277
-0.73798925
-0.45909142
0.46717486
-0.19051945
0.3252782
0.18857956
1.9723533
-0.6297835
-0.8010714
-0.27352184
-0.69131
-0.6817084
-0.037873823
-0.045396365
0.5429786
0.13642201
-0.62107074
-0.27875265
0.3071281
-0.42253602
-0.021621656
-0.42060977
-0.5346353
0.2664046
-0.30782157
-0.069136985
-0.0722816
0.15345405
-0.3503198
-0.17444083
0.15381564
-0.1664555
0.117147736
-0.19072382
-0.39631543
-0.34923458
-0.10895597
-0.30278334
0.7120973
0.8138616
-0.04442576
-0.13495477
0.69396836
-0.7557687
0.17919827
-0.26626366
-0.39373568
0.03810283
0.9883492
0.34475085
-0.6788344
1.6371475
-0.37140548
0.099021755
-0.15062702
-0.5489367
0.92084986
-0.094741546
-0.7516064
-0.21475808
0.2251892
-0.4103724
0.09829365
-0.43053162
0.0027165336
0.107545644
-0.067477
-0.0022637935
-1.474115
-1.1289316
-0.11722038
-0.15839481
0.7521454
-0.12655
-0.08796625
0.80647516
0.080887705
-0.33138913
0.7792594
0.36517206
-0.48303902
0.107576706
0.13426842
-0.3748485
0.73170996
0.59214383
0.21325403
-0.057986062
-0.23862064
-0.13337459
-0.15512265
-0.09323515
-0.43185082
-0.16952966
-0.17749606
0.17751129
0.059236374
0.081045195
-0.111679785
-0.112831935
-0.050206065
-0.16468786
-0.029840922
-0.07715203
0.08310892
0.018077083
0.061479174
-0.068609156
-0.10332097
0.038016472
0.09294934
0.031500828
-0.06577024
-0.24317707
-0.015332729
-0.22174045
-0.00096556445
-0.114892736
-0.0024671105
0.13467222
-0.12817307
-0.048656106
-0.056493055
0.039444473
0.07582977
0.031858884
-0.06432117
0.08548501
0.08610715
0.006829545
-0.03165098
0.002583591
-0.078394584
-0.099842176
0.11364582
-0.035271417
-0.09088331
0.0049794116
-0.0026364902
-0.20662826
0.02366225
0.007950455
-0.06038505
-0.010151372
0.042537402
-0.1165576
0.06649758
-0.0659888
-0.11302659
0.07014056
0.19917153
-0.23090173
-0.035637468
-0.00031415865
0.08827702
0.06155496
0.12091075
0.039216276
0.019945476
-0.0010529569
-0.07211298
0.08255962
-0.0012788922
-0.09513372
0.046867743
0.014802013
-0.022931265
-0.077619955
-0.008894125
0.07235735
0.028229484
0.023533383
0.06922083
0.019062685
0.03055367
-0.0609834
-0.03463071
-0.13433981
0.115996726
-0.113803625
0.13216807
-0.050855048
0.041932326
0.0040229303
-0.03910157
0.005479929
-0.08006084
0.18669508
-0.033584483
0.054864876
0.008322937
-0.07337177
0.0017420461
-0.04721902
0.009978762
0.108879134
-0.10937676
0.15343225
-0.071366556
-0.025523545
0.091041334
0.038676955
-0.061457273
-0.06640731
0.07928316
0.18124418
0.018583965
-0.09862196
0.04313948
0.050335202
-0.060381465
0.08121604
-0.26146585
0.003940302
0.025428196
-0.062028617
0.035226297
-0.003154541
0.012923334
0.007872726
0.0023253185
0.14026707
0.00044026916
-0.084049895
-0.0491087
0.027681658
-0.026814062
-0.03893799
-0.026004067
-0.0811888
-0.015658874
0.066990435
0.09055944
-0.002943725
0.075064614
-0.03377957
-0.13209288
-0.03517007
-0.050779168
-0.03435851
0.05178913
-0.07632568
0.13142079
0.028698068
0.056252692
-0.09317546
-0.13094221
0.02168771
0.03727921
-0.08499507
-0.06276755
0.002947145
0.044986248
-0.030071504
0.06616438
0.039605506
0.16324437
0.059108816
-0.0017045271
0.078205824
0.017996639
0.19872788
0.015227156
-0.090224855
0.007814478
-0.041433286
-0.025443552
-0.028143281
-0.024316506
0.074285455
0.008755521
0.16615307
-0.05305359
0.019031422
0.087745816
0.015552909
-0.15127155
-0.08633083
-0.033060275
-0.008481812
0.016634367
-0.07681069
-0.08766526
-0.054344244
0.16239776
-0.07539555
-0.059542734
-0.063417725
0.17349853
0.0025347322
0.06691618
-0.022617882
0.16535671
0.07879745
0.09516638
-0.06799043
0.016263958
0.065992065
0.065045826
0.04455449
-0.063070625
0.054719508
-0.0010871887
-0.016217204
-0.043381188
-0.004369107
-0.072947696
-0.022316696
-0.07653151
-0.052252952
0.05537704
0.048897903
0.041099872
0.03263833
-0.06373925
-0.0074206027
-0.11307225
-0.15738305
0.08597122
-0.08726392
-0.052702893
-0.09961008
0.025325233
-0.0023748062
0.074420206
-0.040109206
0.08638305
-0.07109152
0.05060936
0.0554124
0.046003934
-0.03507418
0.105780214
-0.08358868
-0.022300875
0.01945194
0.045791764
-0.021197176
-0.070693634
-0.06515866
0.117917836
-0.0085289115
-0.020260409
0.079227924
0.115519695
-0.06940103
-0.017502865
-0.03181025
-0.05329371
-0.048262257
0.02490565
0.070946366
-0.07574869
0.0725154
-0.097248115
0.039068323
0.04644041
-0.23616864
-0.1726374
-0.21838133
-0.09289611
-0.1106076
0.10899038
-0.09600882
0.19171707
0.065590665
0.08761587
-0.14267637
-0.16826577
0.1637283
0.08826702
-0.042004906
-0.08883817
-0.10059777
-0.05454643
-0.052779716
-0.032340236
0.12705438
0.1124449
-0.2020249
0.30646893
0.031896498
-0.17492032
0.06142909
-0.024213754
0.021837436
-0.046890784
-0.03833785
-0.10128257
-0.062243685
-0.20836958
0.011022043
-0.073339626
0.07756049
0.27869788
0.0536884
0.06199466
0.0065445257
0.24876305
-0.09772026
0.049952388
0.10695939
0.08862082
0.13617337
0.03166671
-0.091601126
0.021301711
-0.042912062
-0.0068251784
-0.0037923453
-0.06315943
-0.048716825
-0.1363591
0.06960388
0.027059028
-0.027376505
-0.009941382
0.014362422
0.03390662
-0.018428411
-0.32731897
-0.0426869
0.039880276
-0.016083132
0.054515123
-0.06384628
-0.12783325
-0.103951
0.028290836
0.057990517
0.065096565
0.19895566
-0.16188228
-0.22298002
0.021541908
-0.022289155
-0.03879792
0.0731953
0.04700922
-0.052442703
-0.14885044
0.0815528
-0.068688124
0.124548316
0.07631829
0.14531331
-0.07363107
0.19724153
-0.009123847
0.19692342
0.10297724
-0.24063756
0.15071529
-0.049280155
0.04450517
-0.035665095
-0.08493496
0.004572359
-0.11070701
0.049602143
-0.04009601
-0.16992626
-0.12699173
-0.16016924
-0.12790027
-0.2746098
0.038468864
-0.124544375
-0.18582371
-0.052809406
0.100837246
0.014762828
0.008353127
0.05679323
-0.014455978
-0.048913077
0.1707822
-0.069135234
0.04931261
0.05851632
0.16065162
0.07377014
0.0123160705
-0.096307255
0.018135194
-0.020093974
0.007112413
0.019611998
0.23927167
-0.007687354
0.06274255
0.17027988
-0.038326595
-0.14009652
-0.02728164
-0.08396396
0.25092617
0.064928666
-0.099490315
-0.16859089
-0.05641233
-0.0851565
-0.018186668
0.1473171
0.11671743
0.0012267295
0.15020883
0.18531494
-0.2123527
0.053262893
0.25218058
0.025638983
0.05152683
0.0042012613
-0.14202295
-0.12500678
0.13514598
-0.06191435
0.34508067
-0.13544896
0.2786518
0.04011083
-0.024447035
-0.13484827
-0.06259284
0.038299948
-0.070994794
-0.018824365
-0.04689138
0.06037326
0.02658738
-0.022183588
-0.0033856262
0.00879977
-0.21598954
0.103362285
-0.088896126
0.048339106
-0.019362269
-0.30171907
-0.029118774
-0.11859507
0.118595794
-0.003256093
-0.042570088
0.10055507
0.08389621
-0.02392441
0.09173622
-0.113509096
0.10135855
0.2048296
-0.14825915
-0.1267517
-0.13317925
0.030397536
0.04821789
0.003682411
-0.07685735
-0.17063916
0.21398482
-0.062219728
0.09115979
-0.07044597
0.08431657
0.21239707
-0.10056321
0.111846
-0.044326518
0.10163776
-0.10128566
-0.07806565
0.077989906
0.06749562
-0.065548874
0.24452901
0.017882425
-0.025497613
0.16139846
0.41428718
-0.08726178
0.12646034
-0.025309185
-0.11605925
0.17788962
-0.2414955
-0.13128904
0.04696568
0.09061368
-0.11249303
-0.012724668
-0.12140853
0.030274102
0.13275012
0.11988577
0.06471906
-0.08081769
0.08194601
-0.07714484
0.060441848
-0.04556397
-0.059141234
0.070621304
-0.05255991
0.19077927
-0.26262283
-0.11361679
-0.019141434
0.25007024
-0.030344764
0.007414231
-0.34866866
0.019231135
0.077112205
0.091887124
0.25240055
-0.016389156
0.026985306
-0.043364085
-0.16685612
-0.121213295
-0.19023497
-0.24801919
0.11547725
0.2591624
-0.10164162
0.09205249
0.19076568
0.24157023
0.13198742
0.0018833755
-0.07947244
0.35951036
-0.07520188
-0.22511916
0.0041425643
-0.30104235
0.020305889
-0.031405713
-0.10367341
-0.21399751
-0.20801942
-0.16822062
-0.14920999
0.34981018
0.049889233
0.11519444
-0.18112576
0.29644984
-0.13772991
-0.18508258
0.00967956
0.0014572131
-0.030469691
-0.611008
0.04976928
-0.21091361
0.09163938
0.09363344
-0.28458017
0.02081607
0.15152286
-0.20156552
0.04228423
0.1840329
-0.12174247
-0.17745233
-0.13649581
0.36513713
0.21149871
-0.0030294168
0.067429505
0.3159652
0.2183458
0.024444208
-0.12251734
0.33700275
0.1521917
-0.14110644
-0.2465897
-0.13187283
0.14858352
-0.047408033
0.12582901
-0.2068357
0.09288648
0.090322204
-0.07141954
-0.071821295
0.5269556
-0.11085007
0.05076159
0.2195571
-0.16383134
-0.28863236
0.3778119
0.0034018734
-0.032278318
0.49097306
0.11588075
-0.40353107
-0.13375463
-0.2524353
0.016560195
0.17254704
-0.09754411
-0.29833362
0.041553836
-0.019501165
0.35439205
0.14163831
0.20492795
-0.07400389
-0.1309608
0.32046884
-0.07020871
0.16815229
0.37583172
0.36632425
0.056983076
-0.2150203
0.16137242
-0.016656868
-0.08793454
-0.06289031
0.13481025
7.9186415e-05
-0.15050374
0.1409975
-0.11807762
-0.066391334
-0.14334923
-0.26324916
0.13930373
-0.13429005
0.107949845
-0.08041519
-0.04208373
0.0656274
0.12731892
0.04915342
-0.078008264
0.049930256
-0.038671013
0.019794723
-0.006449634
-0.030679332
0.21101074
0.30758166
-0.0080989525
0.037188437
0.000266846
0.0018681426
-0.011098567
0.1156617
0.06259122
-0.06998375
0.05129207
0.008567012
0.049808595
0.17650262
0.2637149
-0.086569905
0.04038554
0.174457
0.033061717
0.08009156
-0.22522219
-0.0358782
-0.03704815
0.10690981
0.00097562105
-0.26298758
-0.015294934
-0.22003154
-0.077780485
-0.20598437
0.03649467
-0.08757389
-0.19202618
-0.07790966
-0.07049711
0.06945389
-0.022455813
0.016766647
-0.08684897
-0.022597885
0.09974763
-0.08267376
0.04882329
0.41920918
-0.07767423
0.03752058
0.15843363
-0.043993928
0.12755823
0.02993293
0.1968841
-0.099175006
-0.10062684
-0.093199536
0.16401128
-0.12630387
-0.04583578
-0.13929072
0.14104713
0.10421717
-0.002004387
0.007249758
0.027016582
-0.29392886
-0.10896872
0.035659626
0.08346352
0.0968788
0.12423892
-0.1257388
-0.31822985
0.06434435
0.08234674
-0.058139578
-0.124488205
-0.093997926
0.015380922
0.04071401
-0.06614194
-0.039977647
0.107506104
0.023455938
0.24635112
0.035397027
0.17829697
-0.060192317
-0.023606723
-0.101860665
-0.07496722
-0.011772995
-0.2424838
0.23523791
-0.02548526
0.02567049
0.22025424
0.21286036
-0.12821835
-0.014911358
-0.110609114
-0.16956224
0.0710602
-0.21117632
-0.053307563
-0.07138162
-0.22305062
-0.22072375
0.009920315
-0.078684926
-0.044335827
-0.14801273
0.010267219
-0.083019726
-0.005546197
0.066236354
-0.10087235
0.25391945
0.07523986
-0.21505544
0.025617048
-0.07000711
-0.14671683
0.32438082
-0.24900283
-0.1334404
-0.43636152
0.09236359
0.0029406552
0.029112078
-0.119088404
0.14556624
0.3019493
0.07801399
-0.023494836
-0.19197932
0.13039652
0.082095794
-0.22684158
-0.14356628
0.031468935
0.07896266
-0.120792076
0.01751647
0.054118343
0.3662042
-0.37021202
0.36102474
-0.17416772
-0.4461716
0.080069594
0.11282217
0.03330584
0.06735487
0.27948424
-0.51630104
0.12870272
-0.6208684
0.3051515
-0.3073298
0.30236977
0.32090876
-0.07397309
0.08038649
-0.15534401
0.31070733
-0.16848996
0.30898666
0.015435588
-0.086836904
0.42651048
0.041486282
-0.16239616
0.18312074
-0.27832672
-0.008886014
0.25955397
0.14950314
0.024358636
-0.31801465
-0.19946492
-0.08009356
-0.14587349
-0.31778598
0.23643167
0.14788857
-0.009328409
-0.45937994
-0.27017713
0.019791504
0.00046731497
0.33544147
-0.2626
-0.061038215
-0.0123041095
0.20808603
0.15165497
-0.07872969
0.20870097
-0.07168854
-0.41521075
0.13487938
-0.119716585
0.16266914
0.011253111
-0.186542
-0.32444614
-0.3301268
0.26273245
-0.08027309
0.046411455
0.21504278
0.09377056
0.07373368
0.3440448
-0.37219822
-0.00068207004
0.09500844
-0.43662983
0.015139529
-0.2545678
-0.11984932
-0.11505289
-0.12793158
0.20553482
-0.16063377
-0.018750463
-0.014723271
-0.22172311
-0.2764755
-0.17083412
-0.16891918
-0.40773252
-0.1749985
-0.18637614
-0.46133488
-0.34404507
0.006247976
0.17737095
-0.06561243
-0.0034863607
0.07575755
-0.14401054
0.32627404
-0.1281983
0.24148858
-0.13255677
0.13046548
0.08340388
0.162033
-0.09114965
-0.17458594
0.102733575
-0.010526147
0.107164785
0.18275326
-0.09516996
0.036694467
-0.029176107
-0.06804151
0.1104067
0.06974885
0.112329856
0.10453279
0.15165271
-0.13121898
-0.0759702
0.07647973
0.044307385
0.057391286
0.26055655
0.5605118
0.12996131
-0.057766262
0.27063972
0.04643232
-0.044696424
0.2224908
0.07867624
0.105236925
-0.08186021
0.14624646
-0.091405824
0.23004946
-0.12543727
0.28578395
-0.1837763
0.21788357
-0.05010621
0.08847577
-0.04699119
-0.089054674
0.04165177
-0.26205215
-0.08799878
-0.16302194
-0.076886
0.0018978845
0.01452219
-0.17519937
-0.07256237
-0.0656195
-0.0143066
-0.05776647
0.07898027
-0.15046953
-0.011278386
-0.0074752406
-0.0070164357
0.034490973
-0.008683083
0.013496794
0.16485426
-0.09774733
-0.01938921
0.25922403
-0.08968642
-0.017521765
0.10345074
-0.089811645
0.044148695
-0.12267884
0.033306975
-0.06622876
-0.058043107
0.056018934
-0.09116768
0.1591875
-0.06352137
-0.028676465
0.0217717
0.16391206
0.08155072
-0.07250151
0.1467546
0.034108277
0.0075110514
0.056513682
0.01628716
0.07765104
-0.051859036
-0.0074666534
-0.04995064
0.057352
-0.08891339
0.095709674
0.26510748
-0.0266872
-0.08070297
-0.16019607
0.04964217
-0.081534125
-0.26698196
0.11647921
0.016193265
-0.16496146
0.091003604
0.067959316
0.03739857
0.14576799
0.1987473
0.05366455
0.008465076
-0.124036595
0.18573214
-0.08350281
0.15111151
0.116556674
0.13840611
-0.1516118
0.021803716
0.29618493
-0.111585505
-0.16325492
-0.09863522
0.014493583
-0.13865054
0.21862209
0.018650427
-0.25129455
0.22728537
0.020107044
0.34545723
-0.31813854
0.06183946
0.1480036
0.015731625
-0.15229025
-0.01962672
-0.13873696
0.23704295
0.026987191
-0.2447636
-0.099345125
0.19618355
0.2915698
-0.11070591
-0.028139574
-0.20923772
0.19631036
-0.020264236
-0.129802
-0.09576
-0.06740203
-0.07840861
0.22777797
0.05983536
-0.07364152
-0.15645997
0.12633711
-0.16845828
0.21186624
0.015946237
0.41122273
-0.4734329
0.079827465
0.068286404
-0.4022064
-0.015440079
0.071189255
0.22171195
-0.43750274
-0.11037459
-0.37960505
0.030034408
0.075357355
-0.67241937
0.17133561
0.043257795
-0.42728752
0.35794187
0.18728986
0.029115
0.13961299
0.10454821
0.25274646
0.30294496
-0.09831966
0.10149836
0.20880066
0.2114506
-0.050534558
-0.06413434
0.463318
0.032392602
-0.021900766
-0.2206564
0.17331165
-0.105496906
0.19889863
0.0033218965
-0.5451607
-0.10697647
0.0937402
-0.04181464
0.01405546
0.15256903
-0.19525282
0.14355946
0.11704568
-0.16530685
-0.2017743
0.24174602
0.30218402
-0.1970347
0.18459195
-0.0934018
-0.26866606
-0.000111628644
0.17795442
-0.21956973
0.16770945
0.0716534
-0.28463888
-0.32642892
-0.023953106
0.49516138
-0.054644942
0.1337398
-0.10530198
0.022331465
-0.14484236
0.07778033
0.0010034068
0.24632804
0.36348513
0.3195999
0.004920791
-0.0064724847
0.01624837
0.24610816
0.6158541
0.29133257
-0.036813475
-0.42762515
0.049779188
-0.026363567
-0.07631918
0.14252022
-1.4640671
0.29082885
-0.23835088
0.10363004
-0.22529078
0.07648281
0.09476253
0.039013527
0.070950024
-0.003079838
0.06818876
-0.06543772
-0.15919498
0.010625349
0.07925386
-0.003121612
0.06597111
-0.005168294
0.005352767
0.07601229
0.10750263
-0.08349335
-0.031597055
0.20326664
0.046938702
-0.16294564
0.047579262
0.014392693
-0.068271615
-0.017256593
0.09795106
-0.11023712
0.018542973
-0.014064093
0.11106148
0.016286789
-0.06635081
0.16002962
-0.087487
-0.060316924
-0.0029278023
-0.09883771
-0.1791818
0.11801207
0.0106543545
0.19740626
-0.06178369
-0.025668036
0.23280229
-0.006255536
0.054482616
-0.01064966
0.10518202
-0.019499872
0.032891076
0.114829704
-0.25379276
-0.09716929
-0.04759959
0.12230625
0.06376376
-0.061622594
-0.009457353
-0.09728088
-0.1844801
0.23515317
0.015026485
0.21219704
0.05745305
0.28385106
0.07832772
0.04904198
-0.12739533
-0.009718123
-0.039135434
0.15422969
-0.03844927
0.012355696
-0.055153985
-0.063611485
-0.088797115
-0.07394359
-0.078069024
-0.13946618
-0.15317869
0.032261863
0.048000023
-0.14670256
0.021810118
0.030018764
0.25087744
0.0177139
-0.061317198
-0.032168433
0.03866456
0.12989339
0.12050357
-0.0150243975
-0.060697023
0.014581967
0.07739259
-0.07075
0.035422575
0.10566876
-0.039664913
0.15739344
-0.045915857
-0.005520242
-0.25040027
0.1551612
-0.1786278
0.105437346
-0.06443747
-0.025478989
0.16735603
0.04231703
-0.14238846
-0.0025035765
-0.06868589
0.0060102064
-0.11697702
0.004553207
-0.09797054
-0.114153735
0.041591357
-0.09056941
0.16019651
-0.034573957
0.04458008
-0.0032250476
0.13350889
-0.103019714
0.05828724
-0.116796665
-0.18787469
-0.18327352
-0.07508699
0.09579527
0.22873154
0.18627526
0.13858615
0.06332912
0.07194515
0.07936036
-0.08472202
-0.13631946
-0.09481246
0.071693085
-0.1059701
-0.09262539
0.01007995
0.194768
0.15457408
0.1909053
0.06520819
-0.07618401
0.05176633
0.04986531
0.059410486
0.040789086
-0.19557442
0.15711442
0.05904262
-0.11767211
0.08144878
-0.15005891
-0.13120629
-0.2552231
0.2256746
-0.034877375
0.16541426
0.030043328
-0.013512054
0.0036139518
-0.28223714
-0.23250422
-0.14504243
-0.07091371
-0.1548036
0.19432472
-0.096072845
0.022145469
-0.09520372
-0.09541912
0.018568233
0.20988825
-0.30845895
-0.20282735
-0.13204034
-0.35419518
0.042192765
-0.06734547
0.18521936
0.080241635
-0.098576106
0.06309343
0.03243145
0.048125688
-0.03432185
-0.098213784
0.16233656
-0.110937685
-0.01628488
-0.023396635
-0.23914415
0.0014613422
0.09254917
0.03213695
0.060342833
0.0227872
0.13472158
0.07393497
0.019344844
0.017744882
-0.114420496
0.08029878
0.03683363
0.09715919
0.3955823
0.0726029
0.180425
0.009926331
0.059986282
0.05811577
-0.1169703
-0.14072543
0.042582583
-0.12707816
0.024255998
0.20255943
-0.33271173
-0.073574774
0.044771794
0.0061113504
-0.19228348
-0.065525696
0.031308513
-0.28408033
-0.028820904
0.1911483
0.071549244
-0.06423704
0.09441701
-0.008979171
0.013014435
0.044074588
0.028810376
0.012128646
0.19206068
-0.016841237
0.022849618
-0.13136746
0.09135618
0.056229547
-0.027015317
0.016271317
-0.26170823
0.1259988
0.058448505
0.011014912
0.17905465
0.013376079
0.2033581
-0.0919387
-0.14258252
0.16848227
0.08578348
0.23430584
0.19296408
0.007465929
-0.026474692
-0.09490611
-0.3509583
-0.11117457
0.047399003
-0.10419485
0.30159128
0.10685811
-0.055884186
0.07111125
0.17641753
0.043839592
-0.08659802
0.12992324
-0.15591422
-0.17949307
-0.14981762
0.28837532
-0.3114907
0.11218168
0.20914108
-0.21576864
-0.35267547
0.15754247
-0.18045858
-0.058980703
-0.07896258
-0.18151407
0.40341642
-0.12347852
0.28702065
0.0033455747
-0.45203853
0.2683036
-0.13859442
0.09643156
-0.26838014
0.040166236
-0.16416728
-0.10385497
-0.07641139
-0.5552624
0.05861128
0.011857173
0.08108509
-0.07512224
-0.2892026
0.036063813
0.16362934
0.28948388
0.32132113
0.07076549
0.075937346
-0.16346776
0.23163308
0.121265806
-0.079789765
-0.06711197
0.4110689
-0.08957695
-0.06736469
0.1347942
-0.14699745
-0.09054102
0.07385583
-0.33636343
-0.12433959
0.077275775
0.13644783
-0.40100393
-0.13436192
0.17498596
0.21090698
-0.31102285
-0.26000887
-0.06467308
0.085162744
0.015901184
0.21721686
0.069679365
0.2981072
-0.0949827
-0.15546553
